{"learner":{"attributes":{"scikit_learn":"{\"_estimator_type\": \"classifier\"}"},"feature_names":[],"feature_types":[],"gradient_booster":{"model":{"gbtree_model_param":{"num_parallel_tree":"1","num_trees":"100"},"iteration_indptr":[0,1,2,3,4,5,6,7,8,9,10,11,12,13,14,15,16,17,18,19,20,21,22,23,24,25,26,27,28,29,30,31,32,33,34,35,36,37,38,39,40,41,42,43,44,45,46,47,48,49,50,51,52,53,54,55,56,57,58,59,60,61,62,63,64,65,66,67,68,69,70,71,72,73,74,75,76,77,78,79,80,81,82,83,84,85,86,87,88,89,90,91,92,93,94,95,96,97,98,99,100],"tree_info":[0,0,0,0,0,0,0,0,0,0,0,0,0,0,0,0,0,0,0,0,0,0,0,0,0,0,0,0,0,0,0,0,0,0,0,0,0,0,0,0,0,0,0,0,0,0,0,0,0,0,0,0,0,0,0,0,0,0,0,0,0,0,0,0,0,0,0,0,0,0,0,0,0,0,0,0,0,0,0,0,0,0,0,0,0,0,0,0,0,0,0,0,0,0,0,0,0,0,0,0],"trees":[{"base_weights":[-0E0,-1.5678271E0,9.177793E-1,-1.8946048E0,-9.8789877E-1,3.058556E-1,1.344471E0,-1.5041323E0,-5.8761066E-1,-1.864151E0,-6.234568E-1,-7.7324635E-1,8.8E-1,1.4236169E0,-7.083333E-1,-5.855422E-1,-5E-1,-1.3333334E0,-5.8371043E-1,-1.6180905E0,-1.8101545E-1,-1.4077669E0,5.1707315E-1,9.27357E-3,5.952663E-1,1.4931507E0,-4.4444445E-1,6.956522E-1,-5.555556E-1,-5.489362E-1,1.2432432E0,-4.8292685E-1,5.454546E-2,-1.7515528E0,-9.5238096E-1,-7.830986E-1,5.764706E-1,4.1538465E-1,-1.483871E0,-5.123967E-1,5.7272726E-1,-1.4829932E0,4.4444445E-1,1.5320821E0,-4.489796E-1,-1.1044776E0,1.2592592E0,1.1E0,-3.6E-1,-3E-1,4.909091E-1,-2.5E-1,-5.5744684E-1,-3.75E-1,-0E0,5.0279334E-2,-5.133333E-1,-1.3043478E-1,-4.8033243E-1,-4.983051E-1,1.6363637E-1,-5.0476193E-1,-7.2000004E-2,-4.1333336E-1,2.4976076E-1,3.4583965E-1,5.045288E-1,1.0344828E-1,-4.0000004E-1,-4.615385E-2,-3.7241378E-1,-1.5E-1,4.9565217E-1,-0E0,3.6666667E-1],"categories":[],"categories_nodes":[],"categories_segments":[],"categories_sizes":[],"default_left":[0,0,0,0,0,0,0,0,0,0,0,0,0,0,0,0,0,0,0,0,0,0,0,0,0,0,0,0,0,0,0,0,0,0,0,0,0,0,0,0,0,0,0,0,0,0,0,0,0,0,0,0,0,0,0,0,0,0,0,0,0,0,0,0,0,0,0,0,0,0,0,0,0,0,0],"id":0,"left_children":[1,3,5,7,9,11,13,15,-1,17,19,21,23,25,27,-1,29,31,-1,33,35,37,39,41,-1,43,45,47,-1,-1,49,-1,-1,51,53,55,-1,-1,57,59,-1,61,63,65,67,69,71,73,-1,-1,-1,-1,-1,-1,-1,-1,-1,-1,-1,-1,-1,-1,-1,-1,-1,-1,-1,-1,-1,-1,-1,-1,-1,-1,-1],"loss_changes":[2.4346514E3,1.16523315E2,2.7825073E2,7.027466E0,7.140849E1,2.731321E2,1.0312134E2,2.6220352E1,0E0,2.735901E-1,7.099797E1,1.2619897E2,2.7640546E2,7.931409E1,3.9819843E1,0E0,4.8637726E1,5.318552E0,0E0,2.751999E0,1.448714E2,2.3943268E1,7.4421524E1,1.0569811E2,0E0,4.4843994E1,2.6692095E1,1.0134783E1,0E0,0E0,9.7936125E0,0E0,0E0,2.3914108E0,2.9761906E0,7.858719E1,0E0,0E0,1.16953125E1,3.7661858E1,0E0,8.711479E0,9.025284E1,3.0577026E1,9.059348E0,1.9889145E0,5.491948E0,1.3444443E0,0E0,0E0,0E0,0E0,0E0,0E0,0E0,0E0,0E0,0E0,0E0,0E0,0E0,0E0,0E0,0E0,0E0,0E0,0E0,0E0,0E0,0E0,0E0,0E0,0E0,0E0,0E0],"parents":[2147483647,0,0,1,1,2,2,3,3,4,4,5,5,6,6,7,7,9,9,10,10,11,11,12,12,13,13,14,14,16,16,17,17,19,19,20,20,21,21,22,22,23,23,25,25,26,26,27,27,30,30,33,33,34,34,35,35,38,38,39,39,41,41,42,42,43,43,44,44,45,45,46,46,47,47],"right_children":[2,4,6,8,10,12,14,16,-1,18,20,22,24,26,28,-1,30,32,-1,34,36,38,40,42,-1,44,46,48,-1,-1,50,-1,-1,52,54,56,-1,-1,58,60,-1,62,64,66,68,70,72,74,-1,-1,-1,-1,-1,-1,-1,-1,-1,-1,-1,-1,-1,-1,-1,-1,-1,-1,-1,-1,-1,-1,-1,-1,-1,-1,-1],"split_conditions":[-1.6584575E-1,-6.938218E-1,5.964316E-1,-1.0349301E0,-1.5702322E-1,9.164914E-1,1.1821984E0,4.021572E-2,-5.8761066E-1,-6.0664296E-1,6.852483E-1,2.1057265E0,6.852483E-1,6.0985317E0,-8.349949E-1,-5.855422E-1,3.224851E0,1.4703175E0,-5.8371043E-1,-2.2244899E-1,9.164914E-1,-1.2715955E-1,6.899149E-1,-4.4418928E-1,5.952663E-1,2.4618466E0,1.3338844E0,1.599999E0,-5.555556E-1,-5.489362E-1,6.852483E-1,-4.8292685E-1,5.454546E-2,-1.1150098E0,4.2700115E-1,4.823304E-1,5.764706E-1,4.1538465E-1,-1.2920802E0,3.829508E-1,5.7272726E-1,4.9225712E-1,6.899149E-1,6.899149E-1,-4.864489E-1,7.6329136E-1,2.3821282E-1,1.4703175E0,-3.6E-1,-3E-1,4.909091E-1,-2.5E-1,-5.5744684E-1,-3.75E-1,-0E0,5.0279334E-2,-5.133333E-1,-1.3043478E-1,-4.8033243E-1,-4.983051E-1,1.6363637E-1,-5.0476193E-1,-7.2000004E-2,-4.1333336E-1,2.4976076E-1,3.4583965E-1,5.045288E-1,1.0344828E-1,-4.0000004E-1,-4.615385E-2,-3.7241378E-1,-1.5E-1,4.9565217E-1,-0E0,3.6666667E-1],"split_indices":[0,0,0,3,4,7,4,4,0,0,6,8,6,2,3,0,12,11,0,0,7,0,10,3,0,5,3,4,0,0,6,0,0,3,3,4,0,0,3,3,0,0,10,10,3,0,13,11,0,0,0,0,0,0,0,0,0,0,0,0,0,0,0,0,0,0,0,0,0,0,0,0,0,0,0],"split_type":[0,0,0,0,0,0,0,0,0,0,0,0,0,0,0,0,0,0,0,0,0,0,0,0,0,0,0,0,0,0,0,0,0,0,0,0,0,0,0,0,0,0,0,0,0,0,0,0,0,0,0,0,0,0,0,0,0,0,0,0,0,0,0,0,0,0,0,0,0,0,0,0,0,0,0],"sum_hessian":[1.69E3,6.2375E2,1.06625E3,3.975E2,2.2625E2,4.3875E2,6.275E2,5.95E1,3.38E2,6.525E1,1.61E2,1.5225E2,2.865E2,6.045E2,2.3E1,4.05E1,1.9E1,1.1E1,5.425E1,4.875E1,1.1225E2,1.02E2,5.025E1,1.6075E2,1.2575E2,5.83E2,2.15E1,1.05E1,1.25E1,1.075E1,8.25E0,9.25E0,1.75E0,3.925E1,9.5E0,8.775E1,2.45E1,2.25E0,9.975E1,2.925E1,2.1E1,3.575E1,1.25E2,5.7175E2,1.125E1,1.575E1,5.75E0,9E0,1.5E0,1E0,7.25E0,5E0,3.425E1,7E0,2.5E0,4.375E1,4.4E1,1.05E1,8.925E1,1.375E1,1.55E1,3.05E1,5.25E0,2.15E1,1.035E2,1.6425E2,4.075E2,6.25E0,5E0,2.25E0,1.35E1,1E0,4.75E0,1E0,8E0],"tree_param":{"num_deleted":"0","num_feature":"16","num_nodes":"75","size_leaf_vector":"1"}},{"base_weights":[-3.6225081E-3,-1.2014496E0,6.825495E-1,-1.4635503E0,-7.486973E-1,2.6528403E-1,1.0296478E0,-1.2495198E0,-4.637523E-1,-1.3381611E0,-4.197244E-1,-4.676748E-1,6.769388E-1,1.1008973E0,-1.6759332E-1,-4.598995E-1,-7.571004E-1,-4.620238E-1,-9.665086E-1,2.4601187E-1,-9.529694E-1,-1.020128E0,5.659682E-1,-3.3733822E-2,4.659424E-1,1.1548644E0,-2.5592232E-1,-1.3454967E0,4.835054E-1,-4.5305914E-1,1.0412614E0,-3.2302105E-1,-3.712101E-1,-1.1131395E0,6.243601E-1,2.5152457E-1,-1.0949574E0,3.4020644E-1,-1.0742757E0,7.369582E-2,4.4615948E-1,-1.5362549E0,2.0646231E-1,1.1861764E0,-7.761128E-1,-7.7909786E-1,1.0948229E0,1.9917859E-1,-5.094555E-1,-9.8778285E-2,4.3149203E-1,-3.1205297E-1,4.3485817E-1,-2.3259638E-1,3.0637217E-1,6.138925E-2,-4.445346E-1,2.6153687E-1,-4.010502E-1,-3.1509265E-1,1.9382007E-1,-4.4986552E-1,-1.8978898E-1,-7.3674604E-2,-3.5262758E-1,-1.717903E-1,4.915857E-1,-5.350302E-1,-1.5505542E-1,-3.516104E-1,1.5745968E-1,2.764475E-1,4.0817592E-1,-5.5571103E-1,5.0910752E-2,-2.7667174E-1,4.191228E-2,3.9466795E-1,2.867264E-2,1.9757886E-1,-2.0793985E-1],"categories":[],"categories_nodes":[],"categories_segments":[],"categories_sizes":[],"default_left":[0,0,0,0,0,0,0,0,0,0,0,0,0,0,0,0,0,0,0,0,0,0,0,0,0,0,0,0,0,0,0,0,0,0,0,0,0,0,0,0,0,0,0,0,0,0,0,0,0,0,0,0,0,0,0,0,0,0,0,0,0,0,0,0,0,0,0,0,0,0,0,0,0,0,0,0,0,0,0,0,0],"id":1,"left_children":[1,3,5,7,9,11,13,15,-1,17,19,21,23,25,27,-1,29,-1,31,33,35,37,39,41,-1,43,45,47,49,-1,51,53,-1,55,57,59,61,-1,63,65,-1,67,69,71,73,75,77,-1,-1,79,-1,-1,-1,-1,-1,-1,-1,-1,-1,-1,-1,-1,-1,-1,-1,-1,-1,-1,-1,-1,-1,-1,-1,-1,-1,-1,-1,-1,-1,-1,-1],"loss_changes":[1.3093649E3,6.775574E1,1.464212E2,4.522339E0,4.1088173E1,1.3949878E2,4.732025E1,1.3772293E1,0E0,4.2504272E0,4.968817E1,9.565025E1,1.842424E2,3.8493835E1,2.5119534E1,0E0,5.718216E1,0E0,4.760641E0,3.2963593E1,1.3539169E1,1.3915611E1,2.6480526E1,5.9614502E1,0E0,3.1266418E1,1.5533484E1,9.364061E0,1.1974653E1,0E0,1.2309645E1,6.9471846E0,0E0,7.1157093E0,2.5295975E1,5.2968435E0,1.2063568E1,0E0,8.655296E0,4.065397E1,0E0,4.8142624E0,6.3178467E1,2.1563904E1,9.081989E0,2.1750698E0,1.2452459E0,0E0,0E0,6.8288965E0,0E0,0E0,0E0,0E0,0E0,0E0,0E0,0E0,0E0,0E0,0E0,0E0,0E0,0E0,0E0,0E0,0E0,0E0,0E0,0E0,0E0,0E0,0E0,0E0,0E0,0E0,0E0,0E0,0E0,0E0,0E0],"parents":[2147483647,0,0,1,1,2,2,3,3,4,4,5,5,6,6,7,7,9,9,10,10,11,11,12,12,13,13,14,14,16,16,18,18,19,19,20,20,21,21,22,22,23,23,25,25,26,26,27,27,28,28,30,30,31,31,33,33,34,34,35,35,36,36,38,38,39,39,41,41,42,42,43,43,44,44,45,45,46,46,49,49],"right_children":[2,4,6,8,10,12,14,16,-1,18,20,22,24,26,28,-1,30,-1,32,34,36,38,40,42,-1,44,46,48,50,-1,52,54,-1,56,58,60,62,-1,64,66,-1,68,70,72,74,76,78,-1,-1,80,-1,-1,-1,-1,-1,-1,-1,-1,-1,-1,-1,-1,-1,-1,-1,-1,-1,-1,-1,-1,-1,-1,-1,-1,-1,-1,-1,-1,-1,-1,-1],"split_conditions":[-1.6584575E-1,-6.938218E-1,6.619226E-1,-6.858488E-1,-1.281302E-2,9.164914E-1,9.460502E-1,-1.9539689E-1,-4.637523E-1,-3.4368187E-1,5.2631813E-1,2.1057265E0,6.852483E-1,6.0985317E0,1.4703175E0,-4.598995E-1,3.224851E0,-4.620238E-1,-5.6305355E-1,6.852483E-1,-1.2783042E0,-1.2715955E-1,6.899149E-1,-1.3468948E-1,4.659424E-1,1.2241119E0,1.3338844E0,-1.1290663E0,6.899149E-1,-4.5305914E-1,6.852483E-1,1.4703175E0,-3.712101E-1,-1.0723398E0,4.5813063E-1,6.852483E-1,9.164914E-1,3.4020644E-1,-1.2920802E0,1.4703175E0,4.4615948E-1,1.4703175E0,-4.70858E-1,1.4703175E0,9.164914E-1,6.602959E-1,-3.1228247E-1,1.9917859E-1,-5.094555E-1,8.44513E-1,4.3149203E-1,-3.1205297E-1,4.3485817E-1,-2.3259638E-1,3.0637217E-1,6.138925E-2,-4.445346E-1,2.6153687E-1,-4.010502E-1,-3.1509265E-1,1.9382007E-1,-4.4986552E-1,-1.8978898E-1,-7.3674604E-2,-3.5262758E-1,-1.717903E-1,4.915857E-1,-5.350302E-1,-1.5505542E-1,-3.516104E-1,1.5745968E-1,2.764475E-1,4.0817592E-1,-5.5571103E-1,5.0910752E-2,-2.7667174E-1,4.191228E-2,3.9466795E-1,2.867264E-2,1.9757886E-1,-2.0793985E-1],"split_indices":[0,0,0,3,4,7,4,4,0,4,4,8,6,2,11,0,12,0,0,6,3,0,10,4,0,0,3,3,10,0,6,11,0,3,3,6,7,0,3,11,0,11,3,11,7,4,4,0,0,0,0,0,0,0,0,0,0,0,0,0,0,0,0,0,0,0,0,0,0,0,0,0,0,0,0,0,0,0,0,0,0],"split_type":[0,0,0,0,0,0,0,0,0,0,0,0,0,0,0,0,0,0,0,0,0,0,0,0,0,0,0,0,0,0,0,0,0,0,0,0,0,0,0,0,0,0,0,0,0,0,0,0,0,0,0,0,0,0,0,0,0,0,0,0,0,0,0,0,0,0,0,0,0,0,0,0,0,0,0,0,0,0,0,0,0],"sum_hessian":[1.5910674E3,5.792097E2,1.01185767E3,3.6542865E2,2.1378107E2,4.6028674E2,5.515709E2,1.05976814E2,2.594518E2,7.547497E1,1.3830609E2,1.6549095E2,2.9479578E2,5.206659E2,3.0905045E1,6.591649E1,4.0060326E1,4.6867874E1,2.8607094E1,6.1750977E1,7.655512E1,1.07857315E2,5.7633633E1,1.6330414E2,1.3149164E2,5.0089188E2,1.977401E1,1.0622097E1,2.0282948E1,2.8348934E1,1.1711392E1,9.123842E0,1.9483252E1,1.3023646E1,4.872733E1,7.991469E0,6.856365E1,2.1556683E0,1.0570165E2,3.826577E1,1.9367863E1,2.1764269E1,1.4153987E2,4.9327875E2,7.6131124E0,1.4558404E1,5.215605E0,1.4542263E0,9.1678705E0,1.3156207E1,7.126741E0,1.6666434E0,1.0044749E1,7.143518E0,1.9803244E0,2.9441667E0,1.007948E1,4.3761715E1,4.965613E0,1.4720833E0,6.5193853E0,3.5368393E1,3.3195255E1,1.1871248E1,9.38304E1,2.7529764E1,1.0736008E1,1.6913656E1,4.8506117E0,2.6055231E1,1.1548464E2,1.9842776E2,2.9485098E2,3.1126695E0,4.500443E0,1.2592823E1,1.9655807E0,4.0126476E0,1.2029572E0,5.737252E0,7.418955E0],"tree_param":{"num_deleted":"0","num_feature":"16","num_nodes":"81","size_leaf_vector":"1"}},{"base_weights":[-7.1402295E-3,-1.0090048E0,5.4114145E-1,-1.2641997E0,-6.02329E-1,1.3308337E-1,7.923503E-1,-1.0719911E0,-4.0160292E-1,-1.2479835E0,-3.7165537E-1,-2.8025278E-1,6.741154E-1,1.5754688E-1,4.2169482E-1,-3.9814508E-1,-6.4122885E-1,-7.9240733E-1,-3.9779302E-1,-1.0869399E0,-6.1278727E-2,-6.498993E-1,4.8187768E-1,7.442692E-1,-3.9126253E-1,-8.8827634E-1,4.5421204E-1,-3.910856E-1,7.972387E-1,-3.6218253E-1,7.0036286E-3,-1.2122362E0,-5.394046E-1,-4.834811E-1,4.3575326E-1,-8.6327724E-2,-1.0561782E0,-9.4309914E-1,7.38531E-1,8.7490493E-1,-6.724307E-2,-1.290485E0,6.3612014E-2,1.4792751E-1,4.5389757E-1,-2.697727E-1,3.4016356E-1,2.451763E-1,-2.7108666E-1,-3.777978E-1,-3.43636E-2,-2.426899E-1,6.291711E-2,1.27509395E-2,-3.308733E-1,-2.1684352E-1,1.8850191E-1,-3.3525753E-1,2.6806954E-1,-4.0369722E-1,2.4875224E-1,3.3761993E-1,3.1127859E-2,2.7403867E-1,-2.4027057E-1,-3.1434998E-1,1.6156518E-1,-4.410853E-1,-1.6987866E-1,-4.4737658E-1,1.4484783E-1,-4.7423896E-1,8.633054E-2],"categories":[],"categories_nodes":[],"categories_segments":[],"categories_sizes":[],"default_left":[0,0,0,0,0,0,0,0,0,0,0,0,0,0,0,0,0,0,0,0,0,0,0,0,0,0,0,0,0,0,0,0,0,0,0,0,0,0,0,0,0,0,0,0,0,0,0,0,0,0,0,0,0,0,0,0,0,0,0,0,0,0,0,0,0,0,0,0,0,0,0,0,0],"id":2,"left_children":[1,3,5,7,9,11,13,15,-1,17,19,21,23,25,-1,-1,27,29,-1,31,33,35,37,39,-1,41,43,-1,45,-1,47,49,51,53,-1,55,57,59,61,63,65,67,69,71,-1,-1,-1,-1,-1,-1,-1,-1,-1,-1,-1,-1,-1,-1,-1,-1,-1,-1,-1,-1,-1,-1,-1,-1,-1,-1,-1,-1,-1],"loss_changes":[7.803904E2,5.1387817E1,9.40177E1,2.9716492E0,2.8675919E1,7.869963E1,2.2096448E2,9.149834E0,0E0,7.641525E-1,3.2252415E1,5.658151E1,2.2114151E1,8.736783E1,0E0,0E0,3.513349E1,3.3087711E0,0E0,2.364235E0,6.626563E1,3.0802002E1,2.4764217E1,1.5723686E1,0E0,2.3925903E1,7.080081E1,0E0,7.817163E0,0E0,3.98064E0,1.6648445E0,2.1878538E0,2.6425085E1,0E0,2.6659418E1,1.0365784E1,8.594766E0,1.3715204E1,8.960068E0,1.3286897E1,4.8743362E0,1.3399046E1,4.1789642E1,0E0,0E0,0E0,0E0,0E0,0E0,0E0,0E0,0E0,0E0,0E0,0E0,0E0,0E0,0E0,0E0,0E0,0E0,0E0,0E0,0E0,0E0,0E0,0E0,0E0,0E0,0E0,0E0,0E0],"parents":[2147483647,0,0,1,1,2,2,3,3,4,4,5,5,6,6,7,7,9,9,10,10,11,11,12,12,13,13,16,16,17,17,19,19,20,20,21,21,22,22,23,23,25,25,26,26,28,28,30,30,31,31,32,32,33,33,35,35,36,36,37,37,38,38,39,39,40,40,41,41,42,42,43,43],"right_children":[2,4,6,8,10,12,14,16,-1,18,20,22,24,26,-1,-1,28,30,-1,32,34,36,38,40,-1,42,44,-1,46,-1,48,50,52,54,-1,56,58,60,62,64,66,68,70,72,-1,-1,-1,-1,-1,-1,-1,-1,-1,-1,-1,-1,-1,-1,-1,-1,-1,-1,-1,-1,-1,-1,-1,-1,-1,-1,-1,-1,-1],"split_conditions":[-1.6584575E-1,-6.938218E-1,9.164914E-1,-6.858488E-1,-1.7503783E-1,9.271833E-1,6.852483E-1,-1.9539689E-1,-4.0160292E-1,-6.0664296E-1,6.852483E-1,2.1057265E0,1.2241119E0,6.899149E-1,4.2169482E-1,-3.9814508E-1,3.224851E0,-4.034919E-1,-3.9779302E-1,-2.2244899E-1,9.164914E-1,-5.672756E-1,-4.6821216E-1,5.46415E-1,-3.9126253E-1,1.0065036E0,1.4703175E0,-3.910856E-1,6.852483E-1,-3.6218253E-1,-2.905186E-1,2.8352354E0,4.2700115E-1,4.823304E-1,4.3575326E-1,5.447341E-1,2.678921E0,6.899149E-1,2.7393633E-1,2.4618466E0,6.899149E-1,7.50225E-1,-1.85708E-1,-9.9192345E-1,4.5389757E-1,-2.697727E-1,3.4016356E-1,2.451763E-1,-2.7108666E-1,-3.777978E-1,-3.43636E-2,-2.426899E-1,6.291711E-2,1.27509395E-2,-3.308733E-1,-2.1684352E-1,1.8850191E-1,-3.3525753E-1,2.6806954E-1,-4.0369722E-1,2.4875224E-1,3.3761993E-1,3.1127859E-2,2.7403867E-1,-2.4027057E-1,-3.1434998E-1,1.6156518E-1,-4.410853E-1,-1.6987866E-1,-4.4737658E-1,1.4484783E-1,-4.7423896E-1,8.633054E-2],"split_indices":[0,0,7,3,4,0,6,4,0,0,6,8,0,10,0,0,12,4,0,0,7,3,4,4,0,0,11,0,6,0,3,4,3,4,0,0,3,10,4,5,10,3,3,3,0,0,0,0,0,0,0,0,0,0,0,0,0,0,0,0,0,0,0,0,0,0,0,0,0,0,0,0,0],"split_type":[0,0,0,0,0,0,0,0,0,0,0,0,0,0,0,0,0,0,0,0,0,0,0,0,0,0,0,0,0,0,0,0,0,0,0,0,0,0,0,0,0,0,0,0,0,0,0,0,0,0,0,0,0,0,0,0,0,0,0,0,0,0,0,0,0,0,0,0,0,0,0,0,0],"sum_hessian":[1.4186956E3,5.0149078E2,9.172048E2,3.0683734E2,1.9465343E2,3.500771E2,5.671277E2,8.998877E1,2.1684857E2,5.0077255E1,1.4457617E2,1.9873222E2,1.5134488E2,2.7929575E2,2.8783194E2,5.5206585E1,3.4782185E1,8.951208E0,4.112605E1,4.2993248E1,1.0158293E2,1.3392401E2,6.480821E1,1.4676424E2,4.58065E0,6.1278522E1,2.1801721E2,2.3879726E1,1.090246E1,5.5570683E0,3.3941395E0,3.399903E1,8.994214E0,7.9961845E1,2.1621084E1,5.660986E1,7.731414E1,9.48294E0,5.532527E1,1.26347015E2,2.0417221E1,4.2826855E1,1.8451668E1,1.6998387E2,4.8033337E1,1.5284876E0,9.373973E0,1.8503145E0,1.5438249E0,3.2459312E1,1.5397215E0,6.5554614E0,2.4387531E0,4.374635E1,3.6215496E1,2.9936747E1,2.6673113E1,7.5369545E1,1.9445992E0,7.923821E0,1.5591182E0,3.3894787E1,2.1430485E1,1.2395006E2,2.3969557E0,7.518095E0,1.2899126E1,3.348383E1,9.343024E0,3.3753204E0,1.5076347E1,1.1950214E1,1.5803366E2],"tree_param":{"num_deleted":"0","num_feature":"16","num_nodes":"73","size_leaf_vector":"1"}},{"base_weights":[-9.101842E-3,-8.0646044E-1,4.882526E-1,-1.1494584E0,-4.297279E-1,1.2226659E-1,7.1474105E-1,-9.660367E-1,-3.6632413E-1,-1.0277547E0,-1.7524917E-1,-2.4086161E-1,5.3101563E-1,2.0710316E-1,3.8005948E-1,-3.625729E-1,-5.6905997E-1,-1.1421134E0,-1.1513828E-2,-4.72037E-1,3.7666267E-1,-5.3206897E-1,3.9794657E-1,9.972239E-1,2.9843748E-1,-6.184351E-1,4.3111074E-1,-3.543293E-1,6.3260263E-1,-5.9841186E-1,-1.2324134E0,-6.5022385E-1,1.009191E0,-6.8214035E-1,2.9111433E-1,-1.00599535E-1,-8.8359797E-1,3.903659E-2,3.6700505E-1,-9.340767E-3,1.0873038E0,6.859163E-1,-2.6197726E-1,-9.539079E-1,3.3265635E-2,1.9318467E-1,3.9750376E-1,-9.526193E-2,3.8181502E-1,-3.3260697E-1,-1.14696715E-2,-4.1937846E-1,-2.8604865E-1,1.130728E-1,-3.4265804E-1,8.270788E-2,3.652534E-1,-4.876331E-2,-2.9482108E-1,-2.0860341E-1,4.9230093E-1,-2.1867563E-1,1.4211461E-1,-4.2091528E-1,-2.1163474E-1,-1.7347337E-1,3.823009E-1,1.6624768E-1,-1.9090693E-1,3.5930115E-1,1.4230593E-1,-4.070182E-1,2.578825E-1,-3.5477737E-1,9.1835216E-2,-4.0398705E-1,-1.4584656E-1,1.1317332E-1,-3.8441727E-1,8.112794E-3,4.4615474E-1],"categories":[],"categories_nodes":[],"categories_segments":[],"categories_sizes":[],"default_left":[0,0,0,0,0,0,0,0,0,0,0,0,0,0,0,0,0,0,0,0,0,0,0,0,0,0,0,0,0,0,0,0,0,0,0,0,0,0,0,0,0,0,0,0,0,0,0,0,0,0,0,0,0,0,0,0,0,0,0,0,0,0,0,0,0,0,0,0,0,0,0,0,0,0,0,0,0,0,0,0,0],"id":3,"left_children":[1,3,5,7,9,11,13,15,-1,17,19,21,23,25,-1,-1,27,29,31,33,-1,35,37,39,41,43,45,-1,47,49,51,53,55,57,59,61,63,65,-1,67,69,71,73,75,77,79,-1,-1,-1,-1,-1,-1,-1,-1,-1,-1,-1,-1,-1,-1,-1,-1,-1,-1,-1,-1,-1,-1,-1,-1,-1,-1,-1,-1,-1,-1,-1,-1,-1,-1,-1],"loss_changes":[4.9035754E2,6.088315E1,6.3035995E1,2.0787048E0,3.451186E1,4.351584E1,1.3152528E2,6.4794846E0,0E0,7.871155E0,6.900971E1,2.9135803E1,1.4647434E1,4.5789154E1,0E0,0E0,2.2900352E1,2.255867E0,5.78842E0,2.1710686E1,0E0,1.6174633E1,1.4544565E1,4.1309395E0,2.0457897E1,1.1608189E1,4.105009E1,0E0,6.982276E0,2.9954987E0,1.0372772E0,3.1846914E0,1.8721461E-1,1.6318333E1,4.0641983E1,1.8123886E1,4.4662476E0,2.7701994E1,0E0,2.0219557E0,2.2544136E0,2.0852503E1,2.0704966E1,5.772764E0,9.057623E0,3.318796E1,0E0,0E0,0E0,0E0,0E0,0E0,0E0,0E0,0E0,0E0,0E0,0E0,0E0,0E0,0E0,0E0,0E0,0E0,0E0,0E0,0E0,0E0,0E0,0E0,0E0,0E0,0E0,0E0,0E0,0E0,0E0,0E0,0E0,0E0,0E0],"parents":[2147483647,0,0,1,1,2,2,3,3,4,4,5,5,6,6,7,7,9,9,10,10,11,11,12,12,13,13,16,16,17,17,18,18,19,19,21,21,22,22,23,23,24,24,25,25,26,26,28,28,29,29,30,30,31,31,32,32,33,33,34,34,35,35,36,36,37,37,39,39,40,40,41,41,42,42,43,43,44,44,45,45],"right_children":[2,4,6,8,10,12,14,16,-1,18,20,22,24,26,-1,-1,28,30,32,34,-1,36,38,40,42,44,46,-1,48,50,52,54,56,58,60,62,64,66,-1,68,70,72,74,76,78,80,-1,-1,-1,-1,-1,-1,-1,-1,-1,-1,-1,-1,-1,-1,-1,-1,-1,-1,-1,-1,-1,-1,-1,-1,-1,-1,-1,-1,-1,-1,-1,-1,-1,-1,-1],"split_conditions":[-3.615688E-2,-6.938218E-1,9.164914E-1,-6.858488E-1,6.852483E-1,9.271833E-1,6.852483E-1,-1.9539689E-1,-3.6632413E-1,2.1086257E0,9.164914E-1,2.1057265E0,1.0497544E0,6.899149E-1,3.8005948E-1,-3.625729E-1,3.224851E0,-1.0025909E0,6.849226E-1,1.4703175E0,3.7666267E-1,-5.672756E-1,6.899149E-1,-8.7047386E-1,-2.8918615E-1,1.0065036E0,1.4703175E0,-3.543293E-1,6.899149E-1,-1.226608E0,5.294856E-1,2.4174347E0,2.4174347E0,-5.590699E-1,6.899149E-1,5.447341E-1,-1.85708E-1,1.4703175E0,3.6700505E-1,-9.9192345E-1,5.1008445E-1,1.0512121E0,1.4703175E0,9.17051E-1,9.17051E-1,2.1057265E0,3.9750376E-1,-9.526193E-2,3.8181502E-1,-3.3260697E-1,-1.14696715E-2,-4.1937846E-1,-2.8604865E-1,1.130728E-1,-3.4265804E-1,8.270788E-2,3.652534E-1,-4.876331E-2,-2.9482108E-1,-2.0860341E-1,4.9230093E-1,-2.1867563E-1,1.4211461E-1,-4.2091528E-1,-2.1163474E-1,-1.7347337E-1,3.823009E-1,1.6624768E-1,-1.9090693E-1,3.5930115E-1,1.4230593E-1,-4.070182E-1,2.578825E-1,-3.5477737E-1,9.1835216E-2,-4.0398705E-1,-1.4584656E-1,1.1317332E-1,-3.8441727E-1,8.112794E-3,4.4615474E-1],"split_indices":[0,0,7,3,6,0,6,4,0,4,7,8,0,10,0,0,12,3,3,11,0,3,10,4,4,0,11,0,10,3,4,4,4,3,10,0,3,11,0,3,4,0,11,5,5,8,0,0,0,0,0,0,0,0,0,0,0,0,0,0,0,0,0,0,0,0,0,0,0,0,0,0,0,0,0,0,0,0,0,0,0],"split_type":[0,0,0,0,0,0,0,0,0,0,0,0,0,0,0,0,0,0,0,0,0,0,0,0,0,0,0,0,0,0,0,0,0,0,0,0,0,0,0,0,0,0,0,0,0,0,0,0,0,0,0,0,0,0,0,0,0,0,0,0,0,0,0,0,0,0,0,0,0,0,0,0,0,0,0,0,0,0,0,0,0],"sum_hessian":[1.2345044E3,4.73987E2,7.605174E2,2.47028E2,2.26959E2,2.9131577E2,4.6920163E2,7.343964E1,1.7358836E2,6.684175E1,1.6011723E2,1.5448431E2,1.3683145E2,2.4516516E2,2.2403647E2,4.431822E1,2.9121422E1,5.996946E1,6.8722944E0,1.3316502E2,2.6952219E1,1.0622681E2,4.8257507E1,4.4447575E1,9.238387E1,5.1950493E1,1.9321466E2,1.9305664E1,9.815758E0,9.627654E0,5.0341805E1,4.450403E0,2.4218912E0,1.04500984E2,2.8664032E1,4.826821E1,5.7958595E1,3.4362823E1,1.3894681E1,3.7246077E0,4.0722965E1,5.44869E1,3.7896973E1,3.3989937E1,1.7960554E1,1.535587E2,3.9655956E1,4.1539083E0,5.66185E0,4.5258265E0,5.1018276E0,2.9075766E1,2.1266039E1,1.5170292E0,2.9333742E0,1.0496101E0,1.3722811E0,3.886378E1,6.563721E1,1.6841583E1,1.1822449E1,2.2921808E1,2.5346403E1,1.3045203E1,4.4913395E1,2.326778E1,1.1095045E1,2.0228584E0,1.7017492E0,3.3700905E1,7.022063E0,3.736305E0,5.0750595E1,1.4048801E1,2.3848171E1,1.745563E1,1.6534307E1,1.4800946E1,3.159608E0,1.3699077E2,1.6567945E1],"tree_param":{"num_deleted":"0","num_feature":"16","num_nodes":"81","size_leaf_vector":"1"}},{"base_weights":[-6.2439805E-3,-7.943294E-1,3.7110755E-1,-1.0720001E0,-4.329027E-1,4.4824722E-1,-6.429548E-1,-8.8484716E-1,-3.438959E-1,-1.0604908E0,-2.3923653E-1,4.4735745E-2,6.157158E-1,-3.284529E-1,-4.100186E-1,-3.3946982E-1,-5.00243E-1,-5.982106E-1,-3.442318E-1,-9.0415734E-1,-3.843086E-2,-6.0558856E-1,2.288812E-1,3.5146478E-1,1.279872E0,-6.153217E-1,3.129488E-1,-3.2942736E-1,5.258609E-1,-2.95657E-1,7.509273E-2,-3.9611217E-1,-2.9838127E-1,-2.2331701E-1,3.9097998E-1,-1.3237152E0,-3.0623686E-1,-1.8784645E-1,3.67581E-1,1.4866334E-1,3.739764E-1,1.5218145E0,3.6309832E-1,-7.5025785E-1,2.6738486E-1,-7.173295E-2,3.361327E-1,1.9447863E-1,-1.997845E-1,-3.2830065E-1,8.894879E-2,-1.01907484E-1,4.5694777E-1,-4.2149654E-1,-1.1792715E-1,-4.3520585E-1,2.10419E-2,-1.7973526E-1,9.312088E-2,-1.1609932E-1,1.1847046E-1,6.919729E-1,3.6454642E-1,-3.7017924E-1,-7.9167314E-2],"categories":[],"categories_nodes":[],"categories_segments":[],"categories_sizes":[],"default_left":[0,0,0,0,0,0,0,0,0,0,0,0,0,0,0,0,0,0,0,0,0,0,0,0,0,0,0,0,0,0,0,0,0,0,0,0,0,0,0,0,0,0,0,0,0,0,0,0,0,0,0,0,0,0,0,0,0,0,0,0,0,0,0,0,0],"id":4,"left_children":[1,3,5,7,9,11,13,15,-1,17,19,21,23,-1,25,-1,27,29,-1,31,33,35,37,39,41,43,-1,-1,45,-1,47,-1,49,51,-1,53,55,57,-1,59,-1,61,-1,63,-1,-1,-1,-1,-1,-1,-1,-1,-1,-1,-1,-1,-1,-1,-1,-1,-1,-1,-1,-1,-1],"loss_changes":[3.1886606E2,3.4377182E1,5.7006447E1,1.707077E0,1.828321E1,4.5545547E1,4.9897003E0,5.1269608E0,0E0,7.4749374E-1,1.5699188E1,2.3955437E1,8.3181625E1,0E0,1.1290384E1,0E0,1.6060297E1,2.091589E0,0E0,6.4864025E0,2.3001318E1,9.088247E0,6.488816E1,6.1947514E1,4.338379E-1,7.154397E0,0E0,0E0,4.80159E0,0E0,2.0263968E0,0E0,6.1984086E0,1.7044708E1,0E0,4.0766144E-1,1.4088056E1,2.286283E1,0E0,3.7108955E1,0E0,3.5291786E0,0E0,6.6900997E0,0E0,0E0,0E0,0E0,0E0,0E0,0E0,0E0,0E0,0E0,0E0,0E0,0E0,0E0,0E0,0E0,0E0,0E0,0E0,0E0,0E0],"parents":[2147483647,0,0,1,1,2,2,3,3,4,4,5,5,6,6,7,7,9,9,10,10,11,11,12,12,14,14,16,16,17,17,19,19,20,20,21,21,22,22,23,23,24,24,25,25,28,28,30,30,32,32,33,33,35,35,36,36,37,37,39,39,41,41,43,43],"right_children":[2,4,6,8,10,12,14,16,-1,18,20,22,24,-1,26,-1,28,30,-1,32,34,36,38,40,42,44,-1,-1,46,-1,48,-1,50,52,-1,54,56,58,-1,60,-1,62,-1,64,-1,-1,-1,-1,-1,-1,-1,-1,-1,-1,-1,-1,-1,-1,-1,-1,-1,-1,-1,-1,-1],"split_conditions":[-1.6584575E-1,-6.938218E-1,2.4618466E0,-6.858488E-1,-1.7503783E-1,6.899149E-1,6.899149E-1,-1.9539689E-1,-3.438959E-1,-6.0664296E-1,6.899149E-1,1.4703175E0,1.4703175E0,-3.284529E-1,2.1057265E0,-3.3946982E-1,3.224851E0,-4.034919E-1,-3.442318E-1,1.5401025E-1,1.4703175E0,6.852483E-1,2.1057265E0,2.1057265E0,6.619226E-1,1.4703175E0,3.129488E-1,-3.2942736E-1,6.899149E-1,-2.95657E-1,-2.905186E-1,-3.9611217E-1,1.4703175E0,2.1057265E0,3.9097998E-1,6.0985317E0,-2.4980772E-1,9.164914E-1,3.67581E-1,9.164914E-1,3.739764E-1,9.164914E-1,3.6309832E-1,1.4047076E-1,2.6738486E-1,-7.173295E-2,3.361327E-1,1.9447863E-1,-1.997845E-1,-3.2830065E-1,8.894879E-2,-1.01907484E-1,4.5694777E-1,-4.2149654E-1,-1.1792715E-1,-4.3520585E-1,2.10419E-2,-1.7973526E-1,9.312088E-2,-1.1609932E-1,1.1847046E-1,6.919729E-1,3.6454642E-1,-3.7017924E-1,-7.9167314E-2],"split_indices":[0,0,5,3,4,10,10,4,0,0,10,11,11,0,8,0,12,4,0,3,11,6,8,8,0,11,0,0,10,0,3,0,11,8,0,2,4,7,0,7,0,7,0,3,0,0,0,0,0,0,0,0,0,0,0,0,0,0,0,0,0,0,0,0,0],"split_type":[0,0,0,0,0,0,0,0,0,0,0,0,0,0,0,0,0,0,0,0,0,0,0,0,0,0,0,0,0,0,0,0,0,0,0,0,0,0,0,0,0,0,0,0,0,0,0,0,0,0,0,0,0,0,0,0,0,0,0,0,0,0,0,0,0],"sum_hessian":[1.0702412E3,3.4617075E2,7.2407043E2,1.9465697E2,1.5151376E2,6.734027E2,5.0667755E1,5.899652E1,1.3566045E2,3.467411E1,1.1683966E2,1.9788081E2,4.7552188E2,1.5975558E1,3.4692196E1,3.4757713E1,2.4238808E1,6.7367544E0,2.7937355E1,2.6288574E1,9.055109E1,4.316203E1,1.5471878E2,3.4126877E2,1.342531E2,3.090286E1,3.7893376E0,1.527111E1,8.967699E0,3.9822695E0,2.754485E0,1.4883074E1,1.14055E1,8.031695E1,1.0234135E1,1.1691909E1,3.1470121E1,1.0966443E2,4.5054356E1,2.7918253E2,6.208624E1,2.5311659E1,1.0894144E2,2.882337E1,2.0794892E0,4.1833615E0,4.7843375E0,1.6237624E0,1.1307225E0,4.519178E0,6.8863225E0,7.605463E1,4.2623215E0,1.0284058E1,1.4078512E0,7.08188E0,2.4388243E1,5.9964973E1,4.969946E1,8.774102E1,1.9144151E2,5.279494E0,2.0032166E1,1.3681055E1,1.5142315E1],"tree_param":{"num_deleted":"0","num_feature":"16","num_nodes":"65","size_leaf_vector":"1"}},{"base_weights":[-5.1068226E-3,-8.154942E-1,2.7064425E-1,-1.015565E0,-4.628115E-1,3.421224E-1,-5.764094E-1,-7.7359676E-1,-3.2390624E-1,-6.3528234E-1,2.2648427E-1,-6.8870555E-3,4.921122E-1,-9.7668576E-1,-3.0846116E-1,-3.198436E-1,-2.7958307E-1,2.0451762E-1,-7.897979E-1,-5.9160393E-1,3.4835684E-1,-6.2831026E-1,1.9583948E-1,2.7376375E-1,3.590279E-1,-5.1759785E-1,-1.1896539E0,-5.673498E-1,2.923442E-1,-2.9608062E-1,5.545973E-1,-2.7477327E-1,6.104865E-1,-6.3817585E-1,-3.5774168E-1,-3.1242725E-1,7.5715646E-2,-3.2611474E-1,-7.155157E-2,-4.0848538E-1,3.323896E-1,1.1819295E-1,3.5081676E-1,-7.8652686E-1,9.7729135E-3,-3.7538064E-1,-6.7733504E-2,-3.226168E-1,-1.1812451E0,2.3823696E-1,-7.2671324E-2,3.2462466E-1,7.8571334E-2,-2.219626E-1,1.0166742E-1,2.1983346E-1,-1.2321559E-1,-3.4067592E-1,7.604503E-2,-3.8428056E-1,1.4890407E-1,1.1859075E-1,-3.408553E-1,5.850804E-2,-2.211288E-1,-2.698746E-1,-4.001385E-2,-1.21027954E-1,1.5268068E-1,-3.5879225E-1,-1.2835413E-2,-1.3717596E-1,-4.098459E-1],"categories":[],"categories_nodes":[],"categories_segments":[],"categories_sizes":[],"default_left":[0,0,0,0,0,0,0,0,0,0,0,0,0,0,0,0,0,0,0,0,0,0,0,0,0,0,0,0,0,0,0,0,0,0,0,0,0,0,0,0,0,0,0,0,0,0,0,0,0,0,0,0,0,0,0,0,0,0,0,0,0,0,0,0,0,0,0,0,0,0,0,0,0],"id":5,"left_children":[1,3,5,7,9,11,13,15,-1,17,19,21,23,25,27,-1,29,31,33,35,-1,37,39,41,-1,43,45,47,-1,-1,49,-1,51,53,-1,-1,55,-1,57,59,61,63,-1,65,67,-1,-1,69,71,-1,-1,-1,-1,-1,-1,-1,-1,-1,-1,-1,-1,-1,-1,-1,-1,-1,-1,-1,-1,-1,-1,-1,-1],"loss_changes":[2.1152823E2,1.6487259E1,4.2959286E1,1.530838E0,1.0703272E1,3.4131187E1,5.633417E0,4.828703E0,0E0,9.414583E0,1.4843766E1,2.4934345E1,6.983112E1,1.5084381E0,1.2047243E1,0E0,9.132318E0,5.960818E0,2.92865E0,3.241226E0,0E0,1.2356293E1,1.2453177E1,4.854744E1,0E0,1.2351859E0,5.5316925E-1,4.040225E0,0E0,0E0,1.588789E0,0E0,1.2482266E0,4.8268967E0,0E0,0E0,1.954743E0,0E0,8.264019E0,2.2707575E1,1.1749176E1,1.9780722E1,0E0,3.041818E-1,1.0119199E0,0E0,0E0,5.4271817E0,4.4792175E-1,0E0,0E0,0E0,0E0,0E0,0E0,0E0,0E0,0E0,0E0,0E0,0E0,0E0,0E0,0E0,0E0,0E0,0E0,0E0,0E0,0E0,0E0,0E0,0E0],"parents":[2147483647,0,0,1,1,2,2,3,3,4,4,5,5,6,6,7,7,9,9,10,10,11,11,12,12,13,13,14,14,16,16,17,17,18,18,19,19,21,21,22,22,23,23,25,25,26,26,27,27,30,30,32,32,33,33,36,36,38,38,39,39,40,40,41,41,43,43,44,44,47,47,48,48],"right_children":[2,4,6,8,10,12,14,16,-1,18,20,22,24,26,28,-1,30,32,34,36,-1,38,40,42,-1,44,46,48,-1,-1,50,-1,52,54,-1,-1,56,-1,58,60,62,64,-1,66,68,-1,-1,70,72,-1,-1,-1,-1,-1,-1,-1,-1,-1,-1,-1,-1,-1,-1,-1,-1,-1,-1,-1,-1,-1,-1,-1,-1],"split_conditions":[-3.341629E-1,-6.938218E-1,2.4618466E0,-8.8198835E-1,1.4703175E0,6.899149E-1,9.164914E-1,-6.0810536E-2,-3.2390624E-1,-1.178194E0,6.899149E-1,3.7012804E-1,1.4703175E0,-1.5702322E-1,6.852483E-1,-3.198436E-1,3.224851E0,1.5990296E-1,4.0926498E-1,4.6479244E-2,3.4835684E-1,3.1443277E-1,-5.191569E-1,2.1057265E0,3.590279E-1,-5.4636914E-1,6.0985317E0,4.7526556E-1,2.923442E-1,-2.9608062E-1,9.164914E-1,-2.7477327E-1,5.2631813E-1,3.1443277E-1,-3.5774168E-1,-3.1242725E-1,2.717339E-1,-3.2611474E-1,6.852483E-1,1.0987349E0,1.599999E0,3.9769235E0,3.5081676E-1,6.65463E-1,3.1254897E-1,-3.7538064E-1,-6.7733504E-2,-1.5702322E-1,-1.5702322E-1,2.3823696E-1,-7.2671324E-2,3.2462466E-1,7.8571334E-2,-2.219626E-1,1.0166742E-1,2.1983346E-1,-1.2321559E-1,-3.4067592E-1,7.604503E-2,-3.8428056E-1,1.4890407E-1,1.1859075E-1,-3.408553E-1,5.850804E-2,-2.211288E-1,-2.698746E-1,-4.001385E-2,-1.21027954E-1,1.5268068E-1,-3.5879225E-1,-1.2835413E-2,-1.3717596E-1,-4.098459E-1],"split_indices":[0,0,5,3,11,10,7,4,0,3,10,0,11,4,6,0,12,4,3,3,0,3,4,8,0,4,2,3,0,0,7,0,4,3,0,0,3,0,6,0,4,1,0,3,0,0,0,4,4,0,0,0,0,0,0,0,0,0,0,0,0,0,0,0,0,0,0,0,0,0,0,0,0],"split_type":[0,0,0,0,0,0,0,0,0,0,0,0,0,0,0,0,0,0,0,0,0,0,0,0,0,0,0,0,0,0,0,0,0,0,0,0,0,0,0,0,0,0,0,0,0,0,0,0,0,0,0,0,0,0,0,0,0,0,0,0,0,0,0,0,0,0,0,0,0,0,0,0,0],"sum_hessian":[9.4459485E2,2.3931874E2,7.052761E2,1.5149736E2,8.782139E1,6.5094275E2,5.4333355E1,3.447378E1,1.17023575E2,7.030781E1,1.7513577E1,1.959479E2,4.5499484E2,2.0726252E1,3.3607105E1,2.0924458E1,1.3549325E1,1.0875471E1,5.943234E1,9.535141E0,7.9784355E0,4.768339E1,1.4826451E2,3.4841904E2,1.0657579E2,7.65501E0,1.307124E1,2.8428257E1,5.1788487E0,7.2329483E0,6.3163767E0,2.558417E0,8.317055E0,4.5053017E1,1.437932E1,5.360906E0,4.174235E0,2.5620794E1,2.2062597E1,2.6959475E1,1.21305046E2,2.9781952E2,5.059951E1,4.7442846E0,2.9107256E0,1.2005627E1,1.0656142E0,2.1416119E1,7.0121384E0,4.85914E0,1.4572371E0,2.640496E0,5.6765585E0,4.102557E1,4.0274487E0,1.5602553E0,2.6139796E0,4.5790105E0,1.7483587E1,1.3513724E1,1.344575E1,1.1702268E2,4.2823615E0,2.7397894E2,2.3840588E1,3.722622E0,1.0216626E0,1.6974201E0,1.2133056E0,4.402377E0,1.701374E1,2.1330848E0,4.879054E0],"tree_param":{"num_deleted":"0","num_feature":"16","num_nodes":"73","size_leaf_vector":"1"}},{"base_weights":[-8.402665E-3,-7.3723483E-1,2.1112174E-1,-9.6569514E-1,-3.8192177E-1,-7.4048616E-2,3.7042478E-1,-7.647648E-1,-3.2066503E-1,-9.4208765E-1,-1.8778823E-1,2.0432167E-2,-1.0351774E0,-1.5084978E-2,3.3816385E-1,-3.1224936E-1,-3.8417444E-1,-1.0138093E0,2.833523E-2,-3.3484113E-1,3.1071046E-1,-5.159968E-1,2.1551505E-1,-1.3529366E0,-1.1204474E-1,1.2202284E-1,-4.3199867E-1,-2.9980963E-1,5.0583386E-1,-4.3679592E-1,-3.26193E-1,-1.334373E-1,-3.451629E-1,-7.8991276E-1,4.430986E-1,-1.09829E0,3.3623716E-1,-1.571076E0,-1.9527656E-1,6.5710604E-1,-3.7345964E-1,3.618703E-1,-1.5459679E-1,-3.45305E-2,-6.145016E-1,-7.9114616E-2,3.6068767E-1,-2.3282994E-1,7.305638E-2,-2.972056E-1,2.1485038E-2,-2.1739624E-2,-3.1714863E-1,-2.2815672E-1,3.291175E-1,-4.4582537E-1,-1.0268255E-1,3.0869448E-1,4.2890966E-2,-1.8500057E-1,-5.030469E-1,-2.4379167E-1,1.9433667E-1,-7.2663486E-2,3.0866984E-1,-3.7150612E-1,1.2921757E-1,-1.968776E-1,4.1087303E-2,-9.775113E-2,2.296902E-1,-2.7952996E-1,-1.2460566E-2],"categories":[],"categories_nodes":[],"categories_segments":[],"categories_sizes":[],"default_left":[0,0,0,0,0,0,0,0,0,0,0,0,0,0,0,0,0,0,0,0,0,0,0,0,0,0,0,0,0,0,0,0,0,0,0,0,0,0,0,0,0,0,0,0,0,0,0,0,0,0,0,0,0,0,0,0,0,0,0,0,0,0,0,0,0,0,0,0,0,0,0,0,0],"id":6,"left_children":[1,3,5,7,9,11,13,15,-1,17,19,21,23,25,-1,-1,27,29,-1,31,-1,33,35,37,39,41,43,-1,45,47,-1,49,-1,51,53,55,57,59,61,63,-1,65,67,69,71,-1,-1,-1,-1,-1,-1,-1,-1,-1,-1,-1,-1,-1,-1,-1,-1,-1,-1,-1,-1,-1,-1,-1,-1,-1,-1,-1,-1],"loss_changes":[1.355503E2,1.555024E1,2.9607164E1,1.6437759E0,8.349002E0,2.1288694E1,1.2194606E2,4.201309E0,0E0,1.5773335E0,1.10469E1,2.252909E1,6.0029526E0,1.5936204E1,0E0,0E0,1.1453727E1,3.191948E-1,0E0,8.692721E0,0E0,1.5436006E1,2.5396793E1,3.6120586E0,6.4493346E0,1.3980833E1,4.982978E0,0E0,5.0530367E0,1.0631963E0,0E0,7.8608146E0,0E0,8.556683E0,1.1379802E1,3.4532967E0,1.9304157E1,2.6949692E-1,2.4014013E0,1.7551479E0,0E0,1.2952329E1,1.4448334E1,5.556496E0,8.5447445E0,0E0,0E0,0E0,0E0,0E0,0E0,0E0,0E0,0E0,0E0,0E0,0E0,0E0,0E0,0E0,0E0,0E0,0E0,0E0,0E0,0E0,0E0,0E0,0E0,0E0,0E0,0E0,0E0],"parents":[2147483647,0,0,1,1,2,2,3,3,4,4,5,5,6,6,7,7,9,9,10,10,11,11,12,12,13,13,16,16,17,17,19,19,21,21,22,22,23,23,24,24,25,25,26,26,28,28,29,29,31,31,33,33,34,34,35,35,36,36,37,37,38,38,39,39,41,41,42,42,43,43,44,44],"right_children":[2,4,6,8,10,12,14,16,-1,18,20,22,24,26,-1,-1,28,30,-1,32,-1,34,36,38,40,42,44,-1,46,48,-1,50,-1,52,54,56,58,60,62,64,-1,66,68,70,72,-1,-1,-1,-1,-1,-1,-1,-1,-1,-1,-1,-1,-1,-1,-1,-1,-1,-1,-1,-1,-1,-1,-1,-1,-1,-1,-1,-1],"split_conditions":[-3.341629E-1,-6.938218E-1,6.852483E-1,-5.939443E-1,6.852483E-1,3.9769235E0,9.164914E-1,-2.1356495E-1,-3.2066503E-1,2.010152E0,9.164914E-1,1.3754423E-1,1.0065036E0,5.46415E-1,3.3816385E-1,-3.1224936E-1,3.224851E0,-1.178194E0,2.833523E-2,3.829508E-1,3.1071046E-1,2.1057265E0,-9.9192345E-1,1.6363294E0,1.0895172E0,-4.2056033E-1,-8.349949E-1,-2.9980963E-1,6.899149E-1,-1.3373857E0,-3.26193E-1,-3.4368187E-1,-3.451629E-1,-1.2715955E-1,6.899149E-1,1.4703175E0,2.6514506E-1,-8.5198265E-1,6.65463E-1,6.899149E-1,-3.7345964E-1,-1.4633123E0,-3.1228247E-1,-9.57649E-1,4.906693E-1,-7.9114616E-2,3.6068767E-1,-2.3282994E-1,7.305638E-2,-2.972056E-1,2.1485038E-2,-2.1739624E-2,-3.1714863E-1,-2.2815672E-1,3.291175E-1,-4.4582537E-1,-1.0268255E-1,3.0869448E-1,4.2890966E-2,-1.8500057E-1,-5.030469E-1,-2.4379167E-1,1.9433667E-1,-7.2663486E-2,3.0866984E-1,-3.7150612E-1,1.2921757E-1,-1.968776E-1,4.1087303E-2,-9.775113E-2,2.296902E-1,-2.7952996E-1,-1.2460566E-2],"split_indices":[0,0,6,3,6,1,7,4,0,3,7,0,0,4,0,0,12,3,0,3,0,8,3,4,0,3,3,0,10,3,0,4,0,0,10,11,0,3,3,10,0,3,4,3,3,0,0,0,0,0,0,0,0,0,0,0,0,0,0,0,0,0,0,0,0,0,0,0,0,0,0,0,0],"split_type":[0,0,0,0,0,0,0,0,0,0,0,0,0,0,0,0,0,0,0,0,0,0,0,0,0,0,0,0,0,0,0,0,0,0,0,0,0,0,0,0,0,0,0,0,0,0,0,0,0,0,0,0,0,0,0,0,0,0,0,0,0,0,0,0,0,0,0,0,0,0,0,0,0],"sum_hessian":[8.452354E2,1.9510814E2,6.5012726E2,1.1770678E2,7.740137E1,2.3320293E2,4.1692432E2,4.279222E1,7.491456E1,1.8929148E1,5.8472214E1,2.1322159E2,1.9981346E1,2.768674E2,1.4005692E2,2.37964E1,1.8995823E1,1.7724646E1,1.2045021E0,5.284681E1,5.625407E0,5.6424194E1,1.567974E2,1.451829E1,5.4630575E0,2.0888124E2,6.798616E1,1.1159374E1,7.836448E0,2.7871313E0,1.4937515E1,4.3315437E1,9.53137E0,4.4026657E1,1.2397537E1,1.2513772E1,1.4428362E2,1.1915856E1,2.602433E0,3.5039325E0,1.9591252E0,1.1171167E2,9.716957E1,2.1767824E1,4.6218334E1,4.018057E0,3.818391E0,1.7657056E0,1.0214256E0,7.621539E0,3.56939E1,1.2293945E1,3.1732712E1,4.307176E0,8.090361E0,7.632852E0,4.8809204E0,3.052961E1,1.1375401E2,1.8699913E0,1.0045865E1,1.5231482E0,1.0792848E0,1.1268259E0,2.3771064E0,3.907782E0,1.0780389E2,3.525585E1,6.191372E1,1.6392708E1,5.375116E0,2.9343784E1,1.6874552E1],"tree_param":{"num_deleted":"0","num_feature":"16","num_nodes":"73","size_leaf_vector":"1"}},{"base_weights":[-9.987811E-3,-8.9452595E-1,1.2303789E-1,-3.1306708E-1,-6.769036E-1,-3.9678626E-2,4.148573E-1,-9.2231363E-1,1.8331982E-1,-6.317654E-1,8.37188E-2,4.941153E-2,6.036503E-1,-3.0646694E-1,-1.7179742E-1,-4.436837E-1,3.4102398E-1,-9.0638727E-1,-1.2615396E-2,1.5583524E-1,-7.706724E-1,2.109445E-1,-6.348971E-1,3.8951188E-1,3.2171065E-1,-2.3127031E-1,2.2056755E-1,3.0745617E-1,-2.5839454E-1,-1.0737575E0,5.379107E-1,-3.7996447E-1,3.439217E-1,5.64092E-1,3.1774383E-2,-9.9087214E-1,-1.98214E-1,2.9640096E-1,-3.534777E-1,4.2038807E-1,-1.4409218E0,5.4041E-1,-2.6050436E-1,1.2873419E-1,1.656823E-2,-3.077153E-2,-3.331899E-1,2.2102515E-1,-3.430094E-2,-1.92725E-1,2.765235E-1,-7.32513E-2,2.181998E-1,3.4757853E-2,-1.8314528E-1,-6.143244E-2,-3.7296382E-1,1.401249E-1,-3.0364597E-1,-3.7271708E-1,1.1012939E-1,-1.1517573E-1,2.82338E-1,-4.8870802E-1,-8.5256815E-2,7.468665E-2,2.861034E-1,-4.4550592E-1,5.164385E-2],"categories":[],"categories_nodes":[],"categories_segments":[],"categories_sizes":[],"default_left":[0,0,0,0,0,0,0,0,0,0,0,0,0,0,0,0,0,0,0,0,0,0,0,0,0,0,0,0,0,0,0,0,0,0,0,0,0,0,0,0,0,0,0,0,0,0,0,0,0,0,0,0,0,0,0,0,0,0,0,0,0,0,0,0,0,0,0,0,0],"id":7,"left_children":[1,3,5,-1,7,9,11,13,15,17,19,21,23,-1,25,27,-1,29,31,33,35,37,39,41,-1,-1,-1,43,-1,45,47,49,-1,51,53,55,57,59,-1,61,63,65,67,-1,-1,-1,-1,-1,-1,-1,-1,-1,-1,-1,-1,-1,-1,-1,-1,-1,-1,-1,-1,-1,-1,-1,-1,-1,-1],"loss_changes":[8.9425125E1,2.515831E0,3.1389137E1,0E0,9.2950325E0,3.1111113E1,1.6294605E1,2.341999E0,6.739092E0,1.2474323E1,2.1849623E1,9.163376E0,1.5232285E1,0E0,3.3650775E0,2.4641745E0,0E0,1.2870853E1,1.0473808E1,1.649578E1,3.2850323E0,8.283864E0,1.4086876E1,1.0792597E1,0E0,0E0,0E0,7.578868E-2,0E0,1.5301628E0,8.555807E-1,6.96494E0,0E0,1.019557E1,1.3632132E1,3.6523895E0,5.304345E0,7.3926845E0,0E0,3.560167E0,1.5413933E0,1.0417643E1,1.1452752E1,0E0,0E0,0E0,0E0,0E0,0E0,0E0,0E0,0E0,0E0,0E0,0E0,0E0,0E0,0E0,0E0,0E0,0E0,0E0,0E0,0E0,0E0,0E0,0E0,0E0,0E0],"parents":[2147483647,0,0,1,1,2,2,4,4,5,5,6,6,7,7,8,8,9,9,10,10,11,11,12,12,14,14,15,15,17,17,18,18,19,19,20,20,21,21,22,22,23,23,27,27,29,29,30,30,31,31,33,33,34,34,35,35,36,36,37,37,39,39,40,40,41,41,42,42],"right_children":[2,4,6,-1,8,10,12,14,16,18,20,22,24,-1,26,28,-1,30,32,34,36,38,40,42,-1,-1,-1,44,-1,46,48,50,-1,52,54,56,58,60,-1,62,64,66,68,-1,-1,-1,-1,-1,-1,-1,-1,-1,-1,-1,-1,-1,-1,-1,-1,-1,-1,-1,-1,-1,-1,-1,-1,-1,-1],"split_conditions":[-6.60251E-1,-2.1356495E-1,8.44513E-1,-3.1306708E-1,3.224851E0,-2.4980772E-1,6.899149E-1,1.4703175E0,6.899149E-1,1.4703175E0,3.9769235E0,9.17051E-1,1.4703175E0,-3.0646694E-1,6.899149E-1,-2.001504E0,3.4102398E-1,7.6329136E-1,6.899149E-1,1.9622955E-2,1.4703175E0,1.0913721E0,-8.9017206E-1,1.1369331E0,3.2171065E-1,-2.3127031E-1,2.2056755E-1,-1.0349301E0,-2.5839454E-1,-6.0664296E-1,9.17051E-1,2.1057265E0,3.439217E-1,-6.576233E-1,2.4618466E0,-8.3570145E-2,-1.7791253E-1,-1.4387268E0,-3.534777E-1,2.1057265E0,5.6976056E-1,1.0512121E0,1.1401846E0,1.2873419E-1,1.656823E-2,-3.077153E-2,-3.331899E-1,2.2102515E-1,-3.430094E-2,-1.92725E-1,2.765235E-1,-7.32513E-2,2.181998E-1,3.4757853E-2,-1.8314528E-1,-6.143244E-2,-3.7296382E-1,1.401249E-1,-3.0364597E-1,-3.7271708E-1,1.1012939E-1,-1.1517573E-1,2.82338E-1,-4.8870802E-1,-8.5256815E-2,7.468665E-2,2.861034E-1,-4.4550592E-1,5.164385E-2],"split_indices":[0,4,0,0,12,4,10,11,10,11,1,5,11,0,10,0,0,0,10,4,11,4,3,0,0,0,0,3,0,0,5,8,0,3,5,0,3,3,0,8,4,0,0,0,0,0,0,0,0,0,0,0,0,0,0,0,0,0,0,0,0,0,0,0,0,0,0,0,0],"split_type":[0,0,0,0,0,0,0,0,0,0,0,0,0,0,0,0,0,0,0,0,0,0,0,0,0,0,0,0,0,0,0,0,0,0,0,0,0,0,0,0,0,0,0,0,0,0,0,0,0,0,0,0,0,0,0,0,0,0,0,0,0,0,0,0,0,0,0,0,0],"sum_hessian":[7.580539E2,9.8351715E1,6.5970215E2,5.6122753E1,4.2228962E1,4.2409418E2,2.3560799E2,3.2799526E1,9.429436E0,7.243173E1,3.5166245E2,8.068606E1,1.5492194E2,2.8649931E1,4.1495943E0,6.011033E0,3.4184024E0,4.985486E1,2.2576874E1,3.250441E2,2.6618332E1,6.583683E1,1.4849227E1,1.0759648E2,4.7325447E1,2.5893564E0,1.560238E0,2.2421591E0,3.7688742E0,4.490739E1,4.947469E0,1.765373E1,4.923142E0,7.492748E1,2.5011662E2,1.869592E1,7.9224114E0,6.276264E1,3.0741863E0,6.6375194E0,8.211708E0,8.746137E1,2.0135113E1,1.0394912E0,1.2026681E0,1.7810723E0,4.3126316E1,3.6923013E0,1.255168E0,1.5113093E1,2.5406377E0,1.2506674E1,6.242081E1,2.2188661E2,2.8230003E1,4.983308E0,1.3712613E1,4.593734E0,3.3286774E0,2.0288675E0,6.0733776E1,2.7117794E0,3.92574E0,6.711931E0,1.499777E0,5.2229362E1,3.523201E1,4.621805E0,1.5513307E1],"tree_param":{"num_deleted":"0","num_feature":"16","num_nodes":"69","size_leaf_vector":"1"}},{"base_weights":[-1.1727491E-2,-6.889881E-1,1.202314E-1,-3.0708268E-1,-4.6718162E-1,-1.47151E-1,2.4114649E-1,-9.9272805E-1,-2.5394526E-1,-6.219267E-1,3.689635E-2,7.615099E-2,3.3827704E-1,-3.09045E-1,-5.5494465E-2,9.7746216E-2,-6.7398864E-1,-7.272795E-1,9.323474E-1,4.4746357E-1,-9.2282146E-2,-4.484408E-2,3.309623E-1,2.9087692E-1,-2.687974E-1,4.4895568E-1,-2.992544E-1,-1.0013869E0,-3.8186342E-1,7.4098326E-2,3.3468273E-1,1.02454096E-1,1.2079604E0,9.320552E-2,-7.2507787E-1,-3.272311E-1,1.24496594E-1,-4.2996727E-2,1.8351313E-1,-4.3594982E-2,2.9700473E-1,-3.0824435E-1,-1.1235168E-1,-3.127629E-1,-6.3860216E-3,-1.7460886E-1,2.92426E-1,4.604027E-1,-1.4897019E-1,-1.9622561E-1,5.931506E-2,4.625147E-2,-3.4916076E-1,-2.0678082E-2,-2.2394462E-1,-5.297925E-2,3.2594907E-1],"categories":[],"categories_nodes":[],"categories_segments":[],"categories_sizes":[],"default_left":[0,0,0,0,0,0,0,0,0,0,0,0,0,0,0,0,0,0,0,0,0,0,0,0,0,0,0,0,0,0,0,0,0,0,0,0,0,0,0,0,0,0,0,0,0,0,0,0,0,0,0,0,0,0,0,0,0],"id":8,"left_children":[1,3,5,-1,7,9,11,13,15,17,19,21,-1,-1,-1,23,25,27,29,31,33,35,-1,37,-1,39,-1,41,43,-1,-1,45,47,49,51,53,55,-1,-1,-1,-1,-1,-1,-1,-1,-1,-1,-1,-1,-1,-1,-1,-1,-1,-1,-1,-1],"loss_changes":[6.2360413E1,7.966877E0,1.8918596E1,0E0,7.622266E0,1.59697895E1,5.8793175E1,4.120903E-1,7.648416E0,9.035412E0,7.0664654E0,4.2358852E1,0E0,0E0,0E0,5.7899976E0,8.991906E0,4.1963787E0,1.8641686E-1,8.238964E0,1.19913845E1,1.4651796E1,0E0,3.5532362E0,0E0,2.056932E0,0E0,4.6180725E-2,5.4601374E0,0E0,0E0,1.4311085E1,6.24986E0,6.3340173E0,9.107567E0,1.2382502E1,5.572665E1,0E0,0E0,0E0,0E0,0E0,0E0,0E0,0E0,0E0,0E0,0E0,0E0,0E0,0E0,0E0,0E0,0E0,0E0,0E0,0E0],"parents":[2147483647,0,0,1,1,2,2,4,4,5,5,6,6,7,7,8,8,9,9,10,10,11,11,15,15,16,16,17,17,18,18,19,19,20,20,21,21,23,23,25,25,27,27,28,28,31,31,32,32,33,33,34,34,35,35,36,36],"right_children":[2,4,6,-1,8,10,12,14,16,18,20,22,-1,-1,-1,24,26,28,30,32,34,36,-1,38,-1,40,-1,42,44,-1,-1,46,48,50,52,54,56,-1,-1,-1,-1,-1,-1,-1,-1,-1,-1,-1,-1,-1,-1,-1,-1,-1,-1,-1,-1],"split_conditions":[-4.541044E-1,-3.4368187E-1,6.899149E-1,-3.0708268E-1,6.852483E-1,3.7012804E-1,1.4703175E0,2.508261E0,3.6476254E-1,2.7714748E0,6.574497E-1,2.1057265E0,3.3827704E-1,-3.09045E-1,-5.5494465E-2,3.6243644E-1,-1.2783042E0,2.5576162E-1,-7.120325E-2,7.50225E-1,9.17051E-1,9.164914E-1,3.309623E-1,-5.1927197E-1,-2.687974E-1,9.17051E-1,-2.992544E-1,2.2902782E0,2.1057265E0,7.4098326E-2,3.3468273E-1,5.964316E-1,1.0906482E0,1.4703175E0,-8.6839175E-1,-1.4632037E-1,6.852483E-1,-4.2996727E-2,1.8351313E-1,-4.3594982E-2,2.9700473E-1,-3.0824435E-1,-1.1235168E-1,-3.127629E-1,-6.3860216E-3,-1.7460886E-1,2.92426E-1,4.604027E-1,-1.4897019E-1,-1.9622561E-1,5.931506E-2,4.625147E-2,-3.4916076E-1,-2.0678082E-2,-2.2394462E-1,-5.297925E-2,3.2594907E-1],"split_indices":[0,4,10,0,6,0,11,4,4,3,0,8,0,0,0,3,3,3,4,3,5,7,0,3,0,5,0,4,8,0,0,0,3,11,3,3,6,0,0,0,0,0,0,0,0,0,0,0,0,0,0,0,0,0,0,0,0],"split_type":[0,0,0,0,0,0,0,0,0,0,0,0,0,0,0,0,0,0,0,0,0,0,0,0,0,0,0,0,0,0,0,0,0,0,0,0,0,0,0,0,0,0,0,0,0,0,0,0,0,0,0,0,0,0,0,0,0],"sum_hessian":[6.958466E2,1.127829E2,5.830637E2,4.351723E1,6.926567E1,1.8149736E2,4.0156638E2,1.8937185E1,5.0328484E1,5.003806E1,1.314593E2,3.3946667E2,6.2099697E1,1.783555E1,1.1016357E0,2.7810644E1,2.2517838E1,4.7359955E1,2.6781044E0,3.0872742E1,1.00586555E2,3.045453E2,3.492141E1,2.387741E1,3.9332323E0,4.949755E0,1.7568083E1,2.5346773E1,2.2013184E1,1.0603665E0,1.6177378E0,2.2018484E1,8.854258E0,7.8445114E1,2.2141443E1,1.1381638E2,1.907289E2,1.0381249E1,1.3496161E1,2.7074523E0,2.2423031E0,2.3720367E1,1.6264061E0,7.10446E0,1.4908724E1,1.252389E1,9.494595E0,7.5137143E0,1.3405432E0,8.979586E0,6.946553E1,7.5870895E0,1.4554355E1,7.114669E1,4.2669693E1,1.458851E2,4.4843792E1],"tree_param":{"num_deleted":"0","num_feature":"16","num_nodes":"57","size_leaf_vector":"1"}},{"base_weights":[-7.076371E-3,-8.385143E-1,7.519821E-2,-5.555115E-1,-3.0139935E-1,-3.9084796E-2,3.1897077E-1,-2.8512418E-1,-1.331705E-1,-5.609814E-1,3.2955457E-2,9.896445E-3,3.2880428E-1,-5.4667914E-1,3.1295353E-1,-8.0580485E-1,-1.715627E-1,-6.286136E-2,3.2585832E-1,-2.6823717E-1,3.371747E-1,-2.72036E-1,1.0719333E-1,-3.8826382E-1,-1.106001E0,2.147495E-1,-3.2965305E-1,-1.8670341E-1,2.1586558E-1,-8.543584E-1,-1.1438689E-1,1.6609977E-1,-1.14923306E-1,-2.237533E-1,1.4785336E-1,-3.4930113E-1,-8.610752E-2,-4.7694776E-2,2.7793103E-1,-2.9143286E-1,-1.4351183E-2,1.2854739E-1,-1.1591599E-1,-2.9572925E-1,9.2271104E-2,-1.1455583E-1,6.9206156E-2],"categories":[],"categories_nodes":[],"categories_segments":[],"categories_sizes":[],"default_left":[0,0,0,0,0,0,0,0,0,0,0,0,0,0,0,0,0,0,0,0,0,0,0,0,0,0,0,0,0,0,0,0,0,0,0,0,0,0,0,0,0,0,0,0,0,0,0],"id":9,"left_children":[1,3,5,7,-1,9,11,-1,13,15,17,19,-1,21,-1,23,25,27,-1,29,-1,-1,31,33,35,37,-1,39,41,43,45,-1,-1,-1,-1,-1,-1,-1,-1,-1,-1,-1,-1,-1,-1,-1,-1],"loss_changes":[4.315185E1,2.1127243E0,1.600622E1,3.750897E0,0E0,1.4747266E1,4.4022537E1,0E0,6.600523E0,4.397188E0,3.4902805E1,4.125738E1,0E0,2.4115167E0,0E0,3.1978035E0,7.269134E0,1.0994226E1,0E0,9.513173E0,0E0,0E0,1.1719158E0,4.6664915E0,4.442463E-1,4.0561705E0,0E0,2.3955214E1,1.2725948E1,3.6630077E0,7.9863386E0,0E0,0E0,0E0,0E0,0E0,0E0,0E0,0E0,0E0,0E0,0E0,0E0,0E0,0E0,0E0,0E0],"parents":[2147483647,0,0,1,1,2,2,3,3,5,5,6,6,8,8,9,9,10,10,11,11,13,13,15,15,16,16,17,17,19,19,22,22,23,23,24,24,25,25,27,27,28,28,29,29,30,30],"right_children":[2,4,6,8,-1,10,12,-1,14,16,18,20,-1,22,-1,24,26,28,-1,30,-1,-1,32,34,36,38,-1,40,42,44,46,-1,-1,-1,-1,-1,-1,-1,-1,-1,-1,-1,-1,-1,-1,-1,-1],"split_conditions":[-6.938218E-1,-5.939443E-1,1.4703175E0,3.224851E0,-3.0139935E-1,6.899149E-1,6.899149E-1,-2.8512418E-1,6.899149E-1,3.985631E-1,2.1057265E0,2.1057265E0,3.2880428E-1,-3.2139637E-2,3.1295353E-1,-1.281302E-2,1.1358289E0,7.6329136E-1,3.2585832E-1,4.0303382E-1,3.371747E-1,-2.72036E-1,-2.001504E0,-5.0307397E-2,2.4174347E0,9.28859E-1,-3.2965305E-1,-1.9539689E-1,3.7788197E-2,2.010152E0,9.164914E-1,1.6609977E-1,-1.14923306E-1,-2.237533E-1,1.4785336E-1,-3.4930113E-1,-8.610752E-2,-4.7694776E-2,2.7793103E-1,-2.9143286E-1,-1.4351183E-2,1.2854739E-1,-1.1591599E-1,-2.9572925E-1,9.2271104E-2,-1.1455583E-1,6.9206156E-2],"split_indices":[0,3,11,12,0,10,10,0,10,3,8,8,0,4,0,4,3,0,0,0,0,0,0,4,4,3,0,4,4,3,7,0,0,0,0,0,0,0,0,0,0,0,0,0,0,0,0],"split_type":[0,0,0,0,0,0,0,0,0,0,0,0,0,0,0,0,0,0,0,0,0,0,0,0,0,0,0,0,0,0,0,0,0,0,0,0,0,0,0,0,0,0,0,0,0,0,0],"sum_hessian":[6.2889606E2,5.580083E1,5.730952E2,2.2248497E1,3.3552334E1,3.9074823E2,1.8234698E2,1.0851578E1,1.139692E1,4.657172E1,3.441765E2,1.3118141E2,5.1165565E1,8.828731E0,2.5681891E0,2.7938086E1,1.8633636E1,3.163384E2,2.7838093E1,1.0558065E2,2.5600765E1,5.4438457E0,3.3848855E0,1.2644414E1,1.5293672E1,1.3696133E1,4.937504E0,2.1925201E2,9.70864E1,2.1005005E1,8.4575645E1,1.703899E0,1.6809865E0,9.103467E0,3.5409474E0,1.3883075E1,1.4105965E0,9.489483E0,4.20665E0,3.2063583E1,1.8718843E2,7.196693E1,2.511947E1,1.9007055E1,1.9979482E0,4.7585606E1,3.699004E1],"tree_param":{"num_deleted":"0","num_feature":"16","num_nodes":"47","size_leaf_vector":"1"}},{"base_weights":[-4.8886104E-3,-7.631745E-1,6.5792054E-2,-2.955824E-1,-5.044591E-1,-9.885437E-1,8.821132E-2,-8.2964367E-1,2.7751204E-1,-3.502012E-1,-5.772313E-1,-1.0205377E-1,2.0822234E-1,-2.7717927E-1,-1.281505E-1,-2.0416999E-1,3.0157238E-1,1.2287452E-1,-2.94492E-1,-2.3729943E-1,2.7171117E-1,-4.0823128E-2,3.1799883E-1,-1.6885863E-1,1.192428E-1,1.9073868E-1,-2.1316656E-1,6.614705E-2,-5.2071476E-1,-4.9817398E-1,7.054301E-1,5.600315E-1,-1.09102435E-1,-8.334613E-2,1.7511341E-1,-1.1200683E-1,2.7370578E-1,-3.4758547E-1,-1.8669E-2,7.951971E-2,-3.410461E-1,2.709286E-1,-1.8939537E-1,-3.6837083E-1,2.2487502E-1,-8.0822915E-2,5.1616795E-2],"categories":[],"categories_nodes":[],"categories_segments":[],"categories_sizes":[],"default_left":[0,0,0,0,0,0,0,0,0,0,0,0,0,0,0,0,0,0,0,0,0,0,0,0,0,0,0,0,0,0,0,0,0,0,0,0,0,0,0,0,0,0,0,0,0,0,0],"id":10,"left_children":[1,3,5,-1,7,9,11,13,15,-1,17,19,21,-1,23,25,-1,-1,-1,27,29,31,-1,-1,-1,33,-1,35,37,39,41,43,45,-1,-1,-1,-1,-1,-1,-1,-1,-1,-1,-1,-1,-1,-1],"loss_changes":[3.0941057E1,2.3313122E0,1.2571102E1,0E0,6.532962E0,1.4088345E-1,1.1850647E1,1.0560617E0,3.0197854E0,0E0,2.531045E0,1.0227642E1,6.750311E1,0E0,9.6974707E-1,1.2679124E0,0E0,0E0,0E0,1.2776857E1,1.834476E1,1.0195672E1,0E0,0E0,0E0,8.9314026E-1,0E0,2.7282263E1,2.2367285E1,1.005208E1,9.787003E0,9.518522E0,1.0081947E1,0E0,0E0,0E0,0E0,0E0,0E0,0E0,0E0,0E0,0E0,0E0,0E0,0E0,0E0],"parents":[2147483647,0,0,1,1,2,2,4,4,5,5,6,6,7,7,8,8,10,10,11,11,12,12,14,14,15,15,19,19,20,20,21,21,25,25,27,27,28,28,29,29,30,30,31,31,32,32],"right_children":[2,4,6,-1,8,10,12,14,16,-1,18,20,22,-1,24,26,-1,-1,-1,28,30,32,-1,-1,-1,34,-1,36,38,40,42,44,46,-1,-1,-1,-1,-1,-1,-1,-1,-1,-1,-1,-1,-1,-1],"split_conditions":[-6.60251E-1,-2.1356495E-1,-1.4633123E0,-2.955824E-1,3.224851E0,9.271833E-1,6.852483E-1,1.4703175E0,6.899149E-1,-3.502012E-1,1.0497544E0,7.192568E-1,9.164914E-1,-2.7717927E-1,-6.938218E-1,-9.472021E-1,3.0157238E-1,1.2287452E-1,-2.94492E-1,2.6514506E-1,9.17051E-1,-1.2729706E0,3.1799883E-1,-1.6885863E-1,1.192428E-1,-1.2495841E0,-2.1316656E-1,1.3754423E-1,7.6329136E-1,-1.6707527E-2,2.4618466E0,-7.978129E-1,1.4703175E0,-8.334613E-2,1.7511341E-1,-1.1200683E-1,2.7370578E-1,-3.4758547E-1,-1.8669E-2,7.951971E-2,-3.410461E-1,2.709286E-1,-1.8939537E-1,-3.6837083E-1,2.2487502E-1,-8.0822915E-2,5.1616795E-2],"split_indices":[0,4,3,0,12,0,6,11,10,0,0,3,7,0,0,3,0,0,0,0,5,3,0,0,0,3,0,0,0,4,5,4,11,0,0,0,0,0,0,0,0,0,0,0,0,0,0],"split_type":[0,0,0,0,0,0,0,0,0,0,0,0,0,0,0,0,0,0,0,0,0,0,0,0,0,0,0,0,0,0,0,0,0,0,0,0,0,0,0,0,0,0,0,0,0,0,0],"sum_hessian":[5.753632E2,4.8222168E1,5.2714105E2,2.4436096E1,2.378607E1,1.00784235E1,5.170626E2,1.6756763E1,7.0293064E0,5.743639E0,4.3347845E0,2.000514E2,3.1701123E2,1.4491836E1,2.2649283E0,4.662592E0,2.3667147E0,1.2563428E0,3.0784416E0,1.4716524E2,5.2886166E1,2.460284E2,7.0982834E1,1.2009008E0,1.0640275E0,2.9698572E0,1.6927347E0,7.144127E1,7.5723976E1,1.9003986E1,3.388218E1,2.4370153E1,2.2165823E2,1.4883084E0,1.4815487E0,4.7387753E1,2.4053514E1,3.1027472E1,4.4696503E1,8.923983E0,1.0080004E1,2.980005E1,4.08213E0,1.8109146E0,2.2559238E1,1.4119518E2,8.046306E1],"tree_param":{"num_deleted":"0","num_feature":"16","num_nodes":"47","size_leaf_vector":"1"}},{"base_weights":[-2.7588021E-3,-7.716075E-1,5.0709445E-2,-4.6371755E-1,-2.9074392E-1,8.133476E-2,-5.650548E-1,-2.648855E-1,-7.594572E-2,1.2664571E-1,-4.4425428E-1,-8.860546E-1,2.1225855E-2,-4.186974E-1,2.7083558E-1,-7.3172726E-2,2.1809097E-1,-2.5251973E-1,-9.7712314E-1,-4.6106115E-1,-1.2447345E0,-2.631086E-1,3.0131885E-1,-2.442747E-1,8.410036E-2,-4.5180514E-1,4.6722148E-2,1.102779E-1,3.1847543E-1,-8.88986E-1,-1.1960468E-2,-6.542987E-2,-3.180216E-1,-2.2382805E-1,-7.472884E-3,-4.156325E-1,-5.854586E-2,-2.4919726E-1,8.467389E-1,1.201885E-1,-7.612494E-2,-2.8445512E-1,-3.7171632E-2,2.5961274E-2,-3.6979777E-1,1.149704E-2,3.1120366E-1,-1.0474419E-1,-3.1102797E-1,8.519169E-2,-2.1684484E-1,-7.407524E-2,8.013465E-2,1.3536605E-1,-2.3570909E-1,3.2827115E-1,6.0996477E-2],"categories":[],"categories_nodes":[],"categories_segments":[],"categories_sizes":[],"default_left":[0,0,0,0,0,0,0,0,0,0,0,0,0,0,0,0,0,0,0,0,0,0,0,0,0,0,0,0,0,0,0,0,0,0,0,0,0,0,0,0,0,0,0,0,0,0,0,0,0,0,0,0,0,0,0,0,0],"id":11,"left_children":[1,3,5,7,-1,9,11,-1,13,15,17,19,21,23,-1,25,27,29,31,33,35,-1,37,-1,39,41,43,45,-1,47,49,-1,-1,-1,51,-1,-1,53,55,-1,-1,-1,-1,-1,-1,-1,-1,-1,-1,-1,-1,-1,-1,-1,-1,-1,-1],"loss_changes":[2.2003416E1,1.6672688E0,9.4842205E0,2.4558842E0,0E0,1.1431541E1,4.505145E0,0E0,3.4495873E0,8.065357E0,3.6491795E0,1.7778673E0,2.6319795E0,1.5530591E0,0E0,6.3336596E0,2.7389095E1,4.4892883E0,3.82123E-1,1.1126956E0,8.7835693E-1,0E0,2.5885315E0,0E0,5.500677E-1,5.3409405E0,5.532643E0,1.792455E1,0E0,2.800312E-1,4.9053807E0,0E0,0E0,0E0,3.5182726E-1,0E0,0E0,2.1256518E0,4.4712138E-1,0E0,0E0,0E0,0E0,0E0,0E0,0E0,0E0,0E0,0E0,0E0,0E0,0E0,0E0,0E0,0E0,0E0,0E0],"parents":[2147483647,0,0,1,1,2,2,3,3,5,5,6,6,8,8,9,9,10,10,11,11,12,12,13,13,15,15,16,16,17,17,18,18,19,19,20,20,22,22,24,24,25,25,26,26,27,27,29,29,30,30,34,34,37,37,38,38],"right_children":[2,4,6,8,-1,10,12,-1,14,16,18,20,22,24,-1,26,28,30,32,34,36,-1,38,-1,40,42,44,46,-1,48,50,-1,-1,-1,52,-1,-1,54,56,-1,-1,-1,-1,-1,-1,-1,-1,-1,-1,-1,-1,-1,-1,-1,-1,-1,-1],"split_conditions":[-6.938218E-1,-5.939443E-1,6.0985317E0,3.224851E0,-2.9074392E-1,2.4618466E0,3.985631E-1,-2.648855E-1,6.899149E-1,6.899149E-1,6.7497635E-1,-3.9208275E-1,2.3821282E-1,-3.2139637E-2,2.7083558E-1,3.1254897E-1,1.4703175E0,-6.965163E-1,-4.8122355E-1,6.852483E-1,1.3880032E0,-2.631086E-1,9.17051E-1,-2.442747E-1,-2.001504E0,-1.02007695E-1,1.2241119E0,2.1057265E0,3.1847543E-1,6.899149E-1,4.7526556E-1,-6.542987E-2,-3.180216E-1,-2.2382805E-1,1.4703175E0,-4.156325E-1,-5.854586E-2,-1.281302E-2,1.1358289E0,1.201885E-1,-7.612494E-2,-2.8445512E-1,-3.7171632E-2,2.5961274E-2,-3.6979777E-1,1.149704E-2,3.1120366E-1,-1.0474419E-1,-3.1102797E-1,8.519169E-2,-2.1684484E-1,-7.407524E-2,8.013465E-2,1.3536605E-1,-2.3570909E-1,3.2827115E-1,6.0996477E-2],"split_indices":[0,3,2,12,0,5,3,0,10,10,4,3,13,4,0,0,11,3,0,6,4,0,5,0,0,3,0,8,0,10,3,0,0,0,11,0,0,4,3,0,0,0,0,0,0,0,0,0,0,0,0,0,0,0,0,0,0],"split_type":[0,0,0,0,0,0,0,0,0,0,0,0,0,0,0,0,0,0,0,0,0,0,0,0,0,0,0,0,0,0,0,0,0,0,0,0,0,0,0,0,0,0,0,0,0,0,0,0,0,0,0,0,0,0,0,0,0],"sum_hessian":[5.33294E2,3.380224E1,4.9949176E2,1.4519376E1,1.9282864E1,4.766531E2,2.2838652E1,6.363058E0,8.156318E0,4.395211E2,3.7132004E1,1.4427827E1,8.410825E0,6.464613E0,1.6917045E0,1.3805493E2,3.0146616E2,2.8390532E1,8.741471E0,7.6495056E0,6.7783213E0,1.4926646E0,6.9181604E0,3.271491E0,3.1931221E0,3.2536167E1,1.0551876E2,2.6830313E2,3.3163033E1,7.0478888E0,2.1342644E1,1.218737E0,7.522734E0,4.3015604E0,3.3479455E0,5.694873E0,1.0834486E0,3.7132876E0,3.204873E0,1.5526477E0,1.6404744E0,1.2190442E1,2.0345726E1,1.0323826E2,2.2805018E0,2.4994498E2,1.8358162E1,2.2373283E0,4.8105607E0,1.5493247E1,5.849396E0,1.8422513E0,1.5056942E0,1.6795442E0,2.0337434E0,1.8085339E0,1.3963392E0],"tree_param":{"num_deleted":"0","num_feature":"16","num_nodes":"57","size_leaf_vector":"1"}},{"base_weights":[-6.132884E-3,-5.965564E-1,4.8272848E-2,-6.8267906E-1,1.7907985E-1,-8.4282875E-1,6.608488E-2,6.913015E-3,-7.51782E-1,-1.6754924E-1,5.5647033E-1,-3.115145E-1,-4.7385252E-1,1.03187405E-1,-3.180046E-1,-1.8295136E-1,3.7422466E-1,-8.569748E-1,-4.7000742E-1,2.4714591E-2,2.1084929E-1,9.840177E-2,-7.9326934E-1,-3.0161591E-2,2.2705123E-1,4.042576E-1,-8.3472323E-1,1.5912268E-1,1.9117124E-2,-6.435158E-1,-3.1176645E-1,-6.9481874E-1,2.4619508E-1,-8.280631E-2,-2.9335335E-1,1.1148441E-1,-4.1166392E-1,-5.0757895E-3,3.1027287E-1,-1.0541966E0,7.607261E-1,-1.1791393E0,-3.2402298E-1,-2.7033377E-1,-4.483434E-2,-4.301323E-2,-2.6869577E-1,-4.955139E-2,9.726301E-2,-1.7355445E-1,5.6834307E-2,-1.8939143E-1,1.7257556E-2,-4.7179144E-2,-3.9597946E-1,-9.6315155E-3,3.1920326E-1,-1.685847E-1,-4.1132107E-1,-1.9211149E-1,9.894302E-2],"categories":[],"categories_nodes":[],"categories_segments":[],"categories_sizes":[],"default_left":[0,0,0,0,0,0,0,0,0,0,0,0,0,0,0,0,0,0,0,0,0,0,0,0,0,0,0,0,0,0,0,0,0,0,0,0,0,0,0,0,0,0,0,0,0,0,0,0,0,0,0,0,0,0,0,0,0,0,0,0,0],"id":12,"left_children":[1,3,5,7,9,11,13,15,17,-1,19,-1,21,23,25,-1,27,29,31,-1,-1,-1,33,35,37,39,41,-1,-1,43,-1,45,-1,-1,-1,47,49,51,-1,53,55,57,59,-1,-1,-1,-1,-1,-1,-1,-1,-1,-1,-1,-1,-1,-1,-1,-1,-1,-1],"loss_changes":[1.630121E1,2.982339E0,7.4325085E0,1.8514881E0,1.7223582E0,1.7038202E-1,6.5393734E0,1.2521305E0,6.413021E-1,0E0,2.0962954E-1,0E0,1.5458375E0,6.8963666E0,1.5439121E1,0E0,1.3362822E-1,2.8181076E-1,3.991144E0,0E0,0E0,0E0,1.0072851E-1,1.0948049E1,4.0545784E1,9.925854E0,3.824442E0,0E0,0E0,1.6318369E0,0E0,1.0435853E0,0E0,0E0,0E0,8.75836E0,5.609626E0,6.662959E0,0E0,7.138829E-1,3.5648632E0,8.765526E-1,2.4887567E0,0E0,0E0,0E0,0E0,0E0,0E0,0E0,0E0,0E0,0E0,0E0,0E0,0E0,0E0,0E0,0E0,0E0,0E0],"parents":[2147483647,0,0,1,1,2,2,3,3,4,4,5,5,6,6,7,7,8,8,10,10,12,12,13,13,14,14,16,16,17,17,18,18,22,22,23,23,24,24,25,25,26,26,29,29,31,31,35,35,36,36,37,37,39,39,40,40,41,41,42,42],"right_children":[2,4,6,8,10,12,14,16,18,-1,20,-1,22,24,26,-1,28,30,32,-1,-1,-1,34,36,38,40,42,-1,-1,44,-1,46,-1,-1,-1,48,50,52,-1,54,56,58,60,-1,-1,-1,-1,-1,-1,-1,-1,-1,-1,-1,-1,-1,-1,-1,-1,-1,-1],"split_conditions":[-5.815597E-1,1.4703175E0,-1.4633123E0,-1.3779168E0,-6.938218E-1,9.271833E-1,3.9769235E0,-1.4801658E0,3.224851E0,-1.6754924E-1,1.2857242E-1,-3.115145E-1,1.0497544E0,9.164914E-1,-7.469816E-1,-1.8295136E-1,-1.4387268E0,9.228392E-2,6.899149E-1,2.4714591E-2,2.1084929E-1,9.840177E-2,-4.7747484E-1,4.9191922E-1,6.852483E-1,-1.1433196E0,4.2044175E-1,1.5912268E-1,1.9117124E-2,-6.938218E-1,-3.1176645E-1,-9.472021E-1,2.4619508E-1,-8.280631E-2,-2.9335335E-1,-1.9539689E-1,2.1057265E0,-5.191569E-1,3.1027287E-1,5.964316E-1,6.852483E-1,-2.2865918E-1,1.4703175E0,-2.7033377E-1,-4.483434E-2,-4.301323E-2,-2.6869577E-1,-4.955139E-2,9.726301E-2,-1.7355445E-1,5.6834307E-2,-1.8939143E-1,1.7257556E-2,-4.7179144E-2,-3.9597946E-1,-9.6315155E-3,3.1920326E-1,-1.685847E-1,-4.1132107E-1,-1.9211149E-1,9.894302E-2],"split_indices":[0,11,3,3,0,0,1,3,12,0,3,0,0,7,3,0,3,4,10,0,0,0,4,4,6,3,4,0,0,0,0,3,0,0,0,4,8,4,0,0,6,3,11,0,0,0,0,0,0,0,0,0,0,0,0,0,0,0,0,0,0],"split_type":[0,0,0,0,0,0,0,0,0,0,0,0,0,0,0,0,0,0,0,0,0,0,0,0,0,0,0,0,0,0,0,0,0,0,0,0,0,0,0,0,0,0,0,0,0,0,0,0,0,0,0,0,0,0,0,0,0,0,0,0,0],"sum_hessian":[5.055749E2,4.1815754E1,4.6375912E2,3.774463E1,4.0711236E0,8.180618E0,4.5557852E2,3.5197988E0,3.422483E1,1.2155476E0,2.855576E0,4.1610765E0,4.0195417E0,4.1611383E2,3.9464687E1,1.0673478E0,2.452451E0,2.3434761E1,1.0790071E1,1.0422877E0,1.8132883E0,1.1373837E0,2.882158E0,2.0074875E2,2.1536508E2,1.654957E1,2.2915117E1,1.1604832E0,1.2919677E0,1.2879953E1,1.0554807E1,9.582596E0,1.207475E0,1.4142741E0,1.4678838E0,1.4691078E2,5.383796E1,1.6803606E2,4.7329025E1,2.8660572E0,1.3683513E1,1.2903879E1,1.0011238E1,7.924449E0,4.955505E0,3.0158122E0,6.5667834E0,6.395676E1,8.2954025E1,4.217031E1,1.1667646E1,1.4445535E1,1.5359052E2,1.0188724E0,1.8471847E0,4.033497E0,9.650016E0,3.9926448E0,8.911235E0,6.7607336E0,3.2505047E0],"tree_param":{"num_deleted":"0","num_feature":"16","num_nodes":"61","size_leaf_vector":"1"}},{"base_weights":[-7.161079E-3,-4.7476742E-1,4.3872014E-2,-2.889724E-1,-2.845093E-1,6.973271E-2,-4.5959115E-1,-2.6833424E-1,-9.385813E-2,8.368856E-2,-9.3278813E-1,-6.096319E-1,2.185654E-1,-2.853062E-1,6.826376E-1,-1.7677966E-3,2.801126E-1,-3.777071E-1,-2.3398925E-1,-7.6954556E-1,3.3597746E-1,1.8318173E-1,-7.0778465E-1,2.1965034E-1,3.06912E-1,-4.7078982E-1,8.6694814E-2,1.08278975E-1,6.281739E-1,-1.3028616E-1,2.321791E-2,3.389929E-2,-8.5005915E-1,-6.479011E-2,2.5871667E-1,-2.9366314E-1,1.9404133E-1,7.142269E-2,-2.731363E-1,1.9358458E-1,-6.4448446E-2,-5.047047E-3,-2.2989465E-1,4.081912E-2,-1.6388305E-1,6.8136394E-2,-2.2386222E-1,2.2532485E-1,-1.2655205E-1,-5.8664437E-2,-2.8141978E-1],"categories":[],"categories_nodes":[],"categories_segments":[],"categories_sizes":[],"default_left":[0,0,0,0,0,0,0,0,0,0,0,0,0,0,0,0,0,0,0,0,0,0,0,0,0,0,0,0,0,0,0,0,0,0,0,0,0,0,0,0,0,0,0,0,0,0,0,0,0,0,0],"id":13,"left_children":[1,3,5,-1,7,9,11,-1,13,15,17,19,-1,21,23,25,27,-1,29,31,33,35,37,39,-1,41,43,45,47,-1,-1,-1,49,-1,-1,-1,-1,-1,-1,-1,-1,-1,-1,-1,-1,-1,-1,-1,-1,-1,-1],"loss_changes":[1.1517645E1,4.1395235E0,5.699428E0,0E0,4.055503E0,5.882767E0,4.258783E0,0E0,4.392506E0,6.8844557E0,1.0227637E0,3.213809E0,0E0,4.752748E0,7.0195746E-1,1.1939243E1,7.368414E0,0E0,2.2492285E-1,1.3054609E0,1.209863E0,7.028267E0,2.6105824E0,8.3482647E-1,0E0,6.1129236E0,7.640084E0,8.7453E0,5.593569E0,0E0,0E0,0E0,7.2175026E-1,0E0,0E0,0E0,0E0,0E0,0E0,0E0,0E0,0E0,0E0,0E0,0E0,0E0,0E0,0E0,0E0,0E0,0E0],"parents":[2147483647,0,0,1,1,2,2,4,4,5,5,6,6,8,8,9,9,10,10,11,11,13,13,14,14,15,15,16,16,18,18,19,19,20,20,21,21,22,22,23,23,25,25,26,26,27,27,28,28,32,32],"right_children":[2,4,6,-1,8,10,12,-1,14,16,18,20,-1,22,24,26,28,-1,30,32,34,36,38,40,-1,42,44,46,48,-1,-1,-1,50,-1,-1,-1,-1,-1,-1,-1,-1,-1,-1,-1,-1,-1,-1,-1,-1,-1,-1],"split_conditions":[-4.8122355E-1,6.852483E-1,6.0985317E0,-2.889724E-1,-3.4368187E-1,1.2241119E0,1.187989E0,-2.6833424E-1,3.224851E0,9.271833E-1,9.17051E-1,1.2366941E0,2.185654E-1,2.3339543E-1,6.899149E-1,-2.586355E-1,4.0926498E-1,-3.777071E-1,-1.1225603E-1,-9.9763054E-1,2.4618466E0,-5.1927197E-1,-1.3576684E0,-2.001504E0,3.06912E-1,-6.316908E-1,3.9769235E0,-3.0547505E-2,2.1459572E0,-1.3028616E-1,2.321791E-2,3.389929E-2,-9.472021E-1,-6.479011E-2,2.5871667E-1,-2.9366314E-1,1.9404133E-1,7.142269E-2,-2.731363E-1,1.9358458E-1,-6.4448446E-2,-5.047047E-3,-2.2989465E-1,4.081912E-2,-1.6388305E-1,6.8136394E-2,-2.2386222E-1,2.2532485E-1,-1.2655205E-1,-5.8664437E-2,-2.8141978E-1],"split_indices":[0,6,2,0,4,0,0,0,12,0,5,4,0,4,10,4,3,0,4,4,5,3,3,0,0,3,1,3,3,0,0,0,3,0,0,0,0,0,0,0,0,0,0,0,0,0,0,0,0,0,0],"split_type":[0,0,0,0,0,0,0,0,0,0,0,0,0,0,0,0,0,0,0,0,0,0,0,0,0,0,0,0,0,0,0,0,0,0,0,0,0,0,0,0,0,0,0,0,0,0,0,0,0,0,0],"sum_hessian":[4.8077612E2,4.649041E1,4.342857E2,1.189305E1,3.459736E1,4.1388763E2,2.0398098E1,7.3598666E0,2.7237492E1,4.0910904E2,4.778585E0,1.8543318E1,1.85478E0,2.2357689E1,4.8798037E0,2.8577194E2,1.233371E2,2.7111728E0,2.067412E0,1.602029E1,2.5230289E0,1.08701515E1,1.1487538E1,2.7647226E0,2.115081E0,4.466097E1,2.4111098E2,8.344996E1,3.988714E1,1.017922E0,1.0494897E0,1.3056E0,1.4714689E1,1.5195312E0,1.0034975E0,2.783075E0,8.087076E0,1.9962637E0,9.491274E0,1.151491E0,1.6132314E0,1.8026625E1,2.6634344E1,2.2439427E2,1.6716696E1,7.3905365E1,9.54459E0,3.5962284E1,3.9248571E0,2.1259375E0,1.2588752E1],"tree_param":{"num_deleted":"0","num_feature":"16","num_nodes":"51","size_leaf_vector":"1"}},{"base_weights":[-9.382273E-3,-6.506115E-1,1.7467733E-2,-2.731112E-1,-3.0887452E-1,-7.8053546E-1,3.27618E-2,-2.4325497E-1,2.150166E-1,-4.5314342E-1,-3.0254564E-1,-1.225832E-1,1.03335224E-1,-3.6357775E-2,1.8670247E-1,-2.6104158E-1,-1.1574782E-1,-2.2666697E-1,3.0300304E-1,1.936222E-2,3.1193668E-1,9.673133E-2,-1.0643365E-1,-1.4725916E-1,1.2581983E-1,-1.07646495E-1,-6.466629E-1,4.4714803E-1,-3.5156465E-1,-3.5753958E-2,3.000573E-1,-3.3261973E-1,-7.307152E-3,-2.58898E-1,1.6372932E-1,-3.2976148E-1,-5.543179E-3],"categories":[],"categories_nodes":[],"categories_segments":[],"categories_sizes":[],"default_left":[0,0,0,0,0,0,0,0,0,0,0,0,0,0,0,0,0,0,0,0,0,0,0,0,0,0,0,0,0,0,0,0,0,0,0,0,0],"id":14,"left_children":[1,3,5,-1,7,9,11,-1,13,15,-1,17,19,21,-1,-1,23,25,27,29,-1,-1,-1,-1,-1,31,-1,33,-1,35,-1,-1,-1,-1,-1,-1,-1],"loss_changes":[8.000361E0,1.3765717E0,5.4730577E0,0E0,2.6932738E0,1.7241573E-1,4.8245273E0,0E0,5.8345187E-1,6.4182365E-1,0E0,6.16238E0,2.3755178E1,6.0929763E-1,0E0,0E0,1.0230404E0,2.527503E1,6.362046E0,1.5090356E1,0E0,0E0,0E0,0E0,0E0,8.78628E0,0E0,3.7965698E0,0E0,4.8417335E0,0E0,0E0,0E0,0E0,0E0,0E0,0E0],"parents":[2147483647,0,0,1,1,2,2,4,4,5,5,6,6,8,8,9,9,11,11,12,12,13,13,16,16,17,17,18,18,19,19,25,25,27,27,29,29],"right_children":[2,4,6,-1,8,10,12,-1,14,16,-1,18,20,22,-1,-1,24,26,28,30,-1,-1,-1,-1,-1,32,-1,34,-1,36,-1,-1,-1,-1,-1,-1,-1],"split_conditions":[-6.938218E-1,3.224851E0,-1.4633123E0,-2.731112E-1,-2.1356495E-1,-1.281302E-2,6.899149E-1,-2.4325497E-1,-1.7399675E0,-6.706562E-1,-3.0254564E-1,1.0987349E0,1.4703175E0,-2.001504E0,1.8670247E-1,-2.6104158E-1,1.4703175E0,1.0895172E0,7.9343486E-1,2.1057265E0,3.1193668E-1,9.673133E-2,-1.0643365E-1,-1.4725916E-1,1.2581983E-1,-6.8882143E-1,-6.466629E-1,-1.0899822E0,-3.5156465E-1,-1.4880921E0,3.000573E-1,-3.3261973E-1,-7.307152E-3,-2.58898E-1,1.6372932E-1,-3.2976148E-1,-5.543179E-3],"split_indices":[0,12,3,0,4,4,10,0,0,4,0,0,11,0,0,0,11,0,3,8,0,0,0,0,0,4,0,3,0,4,0,0,0,0,0,0,0],"split_type":[0,0,0,0,0,0,0,0,0,0,0,0,0,0,0,0,0,0,0,0,0,0,0,0,0,0,0,0,0,0,0,0,0,0,0,0,0],"sum_hessian":[4.6301773E2,1.7674952E1,4.4534277E2,9.096569E0,8.5783825E0,7.4337654E0,4.3790903E2,4.101098E0,4.477284E0,4.27776E0,3.1560054E0,1.365658E2,3.0134323E2,3.3318336E0,1.1454501E0,1.2070065E0,3.0707533E0,1.1010523E2,2.6460556E1,2.7748175E2,2.386147E1,1.5606666E0,1.771167E0,1.8539566E0,1.2167968E0,1.0470054E2,5.404695E0,2.4739513E1,1.7210424E0,2.6363095E2,1.3850794E1,7.0962467E0,9.7604294E1,1.1892344E0,2.355028E1,3.213339E0,2.6041763E2],"tree_param":{"num_deleted":"0","num_feature":"16","num_nodes":"37","size_leaf_vector":"1"}},{"base_weights":[-9.731358E-3,-3.2555774E-1,3.624277E-2,-2.7245754E-1,-2.009823E-1,3.7108463E-1,2.6376601E-2,2.9463146E-2,-5.9241366E-1,1.5449184E-1,-8.1560865E-2,2.0870453E-1,-2.6212054E-1,2.1608457E-1,-7.194916E-1,3.0816087E-2,6.4201164E-1,1.6845974E-1,-2.9121336E-1,3.9604977E-1,-2.4522027E-1,-5.61124E-2,1.570149E-1,-8.1422824E-1,5.5774443E-2,-4.2592967E-1,1.7158502E-1,-4.0084222E-1,7.4125683E-1,-6.935033E-1,3.1603485E-1,-5.801435E-1,2.1709003E-1,-1.10529736E-1,1.5639052E-1,-8.789967E-2,-2.7679998E-1,-3.2339087E-1,2.175092E-2,-3.892256E-2,1.0384246E-1,-2.0854779E-1,7.2866143E-3,2.4662748E-1,-9.904703E-2,-2.6077262E-1,1.3098048E-1,1.2822782E-1,-3.1921935E-1,-3.0210918E-1,-4.106372E-3,-1.9233586E-1,1.2613927E-1],"categories":[],"categories_nodes":[],"categories_segments":[],"categories_sizes":[],"default_left":[0,0,0,0,0,0,0,0,0,0,0,0,0,0,0,0,0,0,0,0,0,0,0,0,0,0,0,0,0,0,0,0,0,0,0,0,0,0,0,0,0,0,0,0,0,0,0,0,0,0,0,0,0],"id":15,"left_children":[1,3,5,-1,7,-1,9,11,13,15,17,19,-1,21,23,25,27,29,31,33,-1,-1,-1,35,-1,37,39,41,43,45,47,49,51,-1,-1,-1,-1,-1,-1,-1,-1,-1,-1,-1,-1,-1,-1,-1,-1,-1,-1,-1,-1],"loss_changes":[6.5111346E0,3.9531207E0,4.606866E0,0E0,4.367647E0,0E0,5.3983383E0,5.250824E0,1.9964452E0,1.0738773E1,1.1163367E1,5.500821E0,0E0,4.9466476E-1,1.4993763E0,9.291664E0,4.0288324E0,1.2601294E1,1.711726E1,2.4371486E0,0E0,0E0,0E0,5.442877E-1,0E0,1.1149446E1,5.847182E0,4.9012232E-1,3.15316E0,3.2676702E0,1.3337161E1,1.7889296E1,7.714835E0,0E0,0E0,0E0,0E0,0E0,0E0,0E0,0E0,0E0,0E0,0E0,0E0,0E0,0E0,0E0,0E0,0E0,0E0,0E0,0E0],"parents":[2147483647,0,0,1,1,2,2,4,4,6,6,7,7,8,8,9,9,10,10,11,11,13,13,14,14,15,15,16,16,17,17,18,18,19,19,23,23,25,25,26,26,27,27,28,28,29,29,30,30,31,31,32,32],"right_children":[2,4,6,-1,8,-1,10,12,14,16,18,20,-1,22,24,26,28,30,32,34,-1,-1,-1,36,-1,38,40,42,44,46,48,50,52,-1,-1,-1,-1,-1,-1,-1,-1,-1,-1,-1,-1,-1,-1,-1,-1,-1,-1,-1,-1],"split_conditions":[-3.341629E-1,-3.4368187E-1,-3.0151716E-1,-2.7245754E-1,5.0244355E-1,3.7108463E-1,1.9622955E-2,3.829508E-1,-1.3931849E0,-5.0307397E-2,2.6514506E-1,2.4618466E0,-2.6212054E-1,1.6363294E0,2.010152E0,4.9225712E-1,2.3926424E-2,6.899149E-1,4.5146888E-1,6.852483E-1,-2.4522027E-1,-5.61124E-2,1.570149E-1,-1.1150098E0,5.5774443E-2,-1.02007695E-1,6.899149E-1,3.1443277E-1,6.0985317E0,2.0745673E0,7.644731E-1,1.4703175E0,2.3821282E-1,-1.10529736E-1,1.5639052E-1,-8.789967E-2,-2.7679998E-1,-3.2339087E-1,2.175092E-2,-3.892256E-2,1.0384246E-1,-2.0854779E-1,7.2866143E-3,2.4662748E-1,-9.904703E-2,-2.6077262E-1,1.3098048E-1,1.2822782E-1,-3.1921935E-1,-3.0210918E-1,-4.106372E-3,-1.9233586E-1,1.2613927E-1],"split_indices":[0,4,0,0,4,0,4,3,3,4,0,5,0,4,3,0,0,10,3,6,0,0,0,3,0,3,10,3,2,3,3,11,13,0,0,0,0,0,0,0,0,0,0,0,0,0,0,0,0,0,0,0,0],"split_type":[0,0,0,0,0,0,0,0,0,0,0,0,0,0,0,0,0,0,0,0,0,0,0,0,0,0,0,0,0,0,0,0,0,0,0,0,0,0,0,0,0,0,0,0,0,0,0,0,0,0,0,0,0],"sum_hessian":[4.4661755E2,5.5979107E1,3.9063846E2,8.752718E0,4.7226387E1,2.1700654E0,3.8846838E2,3.0308023E1,1.6918364E1,1.7743385E2,2.1103455E2,2.5930912E1,4.3771105E0,2.2028615E0,1.4715503E1,1.4237808E2,3.5055763E1,9.634045E1,1.1469409E2,2.2446653E1,3.4842598E0,1.1221365E0,1.0807251E0,1.341277E1,1.3027327E0,3.3065716E1,1.0931237E2,2.782173E0,3.227359E1,1.3542355E1,8.2798096E1,7.303701E1,4.1657078E1,2.8865998E0,1.9560053E1,2.94742E0,1.046535E1,1.382171E1,1.9244005E1,4.0190517E1,6.912185E1,1.2686942E0,1.5134788E0,3.022585E1,2.0477412E0,1.1919608E1,1.622746E0,7.7253105E1,5.54499E0,4.120597E1,3.1831041E1,7.5681553E0,3.4088924E1],"tree_param":{"num_deleted":"0","num_feature":"16","num_nodes":"53","size_leaf_vector":"1"}},{"base_weights":[-1.3104705E-2,-1.7317858E-1,5.976228E-2,-2.855185E-1,-9.534362E-2,-3.2771593E-1,1.1371819E-1,1.0685625E-1,-4.6438786E-1,-4.434825E-2,-8.108423E-1,4.3692157E-1,5.319825E-2,2.9181048E-1,-6.947201E-1,-7.980974E-1,-2.8773628E-2,2.67365E-1,-8.497793E-1,-1.3500814E0,-1.1612922E-1,5.5187875E-1,-3.0764782E-1,2.4370195E-1,-2.0185871E-1,3.4831354E-1,-3.1102628E-1,-1.0881298E0,8.732389E-1,-1.0699018E0,-1.535323E-1,2.2950073E-1,-6.1715966E-1,-2.779526E-1,5.9678984E-1,-2.9740804E-1,-3.586336E-1,-1.8632746E-1,-4.8050252E-1,-3.8361E-1,4.403718E-1,-5.2690893E-1,6.623572E-1,6.4189863E-1,9.766852E-2,-5.0846636E-1,1.8362853E-1,5.871092E-2,3.0321532E-1,-3.8853863E-1,2.2737496E-3,5.8290828E-2,3.255264E-1,-3.3550724E-1,-4.5734588E-2,-1.6266283E-1,7.8014836E-2,-1.9902703E-1,1.1956712E-1,-2.2240615E-1,3.426322E-3,-1.997843E-1,5.0515637E-2,-1.0945127E-1,2.399875E-1,-2.4635465E-1,1.1245737E-1,3.1031382E-1,-3.2140095E-2,-2.2780244E-1,2.688998E-2,5.299041E-3,2.6530194E-1,9.137901E-2,2.7716762E-1,-7.299516E-2,1.2175788E-1,-2.957901E-1,1.09936455E-2,1.8208956E-2,2.6597452E-1],"categories":[],"categories_nodes":[],"categories_segments":[],"categories_sizes":[],"default_left":[0,0,0,0,0,0,0,0,0,0,0,0,0,0,0,0,0,0,0,0,0,0,0,0,0,0,0,0,0,0,0,0,0,0,0,0,0,0,0,0,0,0,0,0,0,0,0,0,0,0,0,0,0,0,0,0,0,0,0,0,0,0,0,0,0,0,0,0,0,0,0,0,0,0,0,0,0,0,0,0,0],"id":16,"left_children":[1,3,5,-1,7,9,11,13,15,17,19,21,23,25,27,29,31,33,35,37,39,41,-1,43,45,47,-1,49,51,53,55,57,59,61,63,65,-1,-1,-1,-1,67,69,71,73,75,77,79,-1,-1,-1,-1,-1,-1,-1,-1,-1,-1,-1,-1,-1,-1,-1,-1,-1,-1,-1,-1,-1,-1,-1,-1,-1,-1,-1,-1,-1,-1,-1,-1,-1,-1],"loss_changes":[4.987844E0,8.0140085E0,6.1836596E0,0E0,9.205643E0,4.9187756E0,5.0389338E0,1.2075289E1,6.317829E0,6.2200255E0,4.833851E0,7.4046254E0,1.0696111E1,5.2985263E0,1.0393892E1,4.156206E0,3.1745405E0,3.394053E0,9.61853E-1,3.635683E-1,5.037457E0,4.921342E0,0E0,7.257615E0,1.1231206E1,6.2555623E0,0E0,2.8866768E0,3.1063533E-1,5.9319687E-1,1.5045124E0,2.4681447E0,5.049076E-1,1.4022572E0,2.5426211E0,1.7116868E0,0E0,0E0,0E0,0E0,1.8738031E0,6.5859544E-1,5.0280676E0,2.914485E0,9.902151E0,1.3767118E1,3.6172605E0,0E0,0E0,0E0,0E0,0E0,0E0,0E0,0E0,0E0,0E0,0E0,0E0,0E0,0E0,0E0,0E0,0E0,0E0,0E0,0E0,0E0,0E0,0E0,0E0,0E0,0E0,0E0,0E0,0E0,0E0,0E0,0E0,0E0,0E0],"parents":[2147483647,0,0,1,1,2,2,4,4,5,5,6,6,7,7,8,8,9,9,10,10,11,11,12,12,13,13,14,14,15,15,16,16,17,17,18,18,19,19,20,20,21,21,23,23,24,24,25,25,27,27,28,28,29,29,30,30,31,31,32,32,33,33,34,34,35,35,40,40,41,41,42,42,43,43,44,44,45,45,46,46],"right_children":[2,4,6,-1,8,10,12,14,16,18,20,22,24,26,28,30,32,34,36,38,40,42,-1,44,46,48,-1,50,52,54,56,58,60,62,64,66,-1,-1,-1,-1,68,70,72,74,76,78,80,-1,-1,-1,-1,-1,-1,-1,-1,-1,-1,-1,-1,-1,-1,-1,-1,-1,-1,-1,-1,-1,-1,-1,-1,-1,-1,-1,-1,-1,-1,-1,-1,-1,-1],"split_conditions":[9.367511E-2,-4.7747484E-1,-1.0349301E0,-2.855185E-1,5.46415E-1,-1.2729706E0,2.6514506E-1,4.7526556E-1,9.17051E-1,1.0497544E0,9.271833E-1,9.429936E-1,5.5953436E-2,9.078747E-2,2.7714748E0,1.8362632E0,-8.3570145E-2,6.619226E-1,1.0766788E0,5.702709E-1,-1.1433196E0,6.899149E-1,-3.0764782E-1,-6.2531227E-1,1.4703175E0,-3.615688E-2,-3.1102628E-1,2.3926424E-2,-7.120325E-2,1.7710161E0,9.164914E-1,6.899149E-1,7.275925E-1,9.17051E-1,-4.3283638E-1,1.4703175E0,-3.586336E-1,-1.8632746E-1,-4.8050252E-1,-3.8361E-1,-1.0723398E0,3.1443277E-1,1.3754423E-1,9.164914E-1,1.5401025E-1,4.5146888E-1,6.899149E-1,5.871092E-2,3.0321532E-1,-3.8853863E-1,2.2737496E-3,5.8290828E-2,3.255264E-1,-3.3550724E-1,-4.5734588E-2,-1.6266283E-1,7.8014836E-2,-1.9902703E-1,1.1956712E-1,-2.2240615E-1,3.426322E-3,-1.997843E-1,5.0515637E-2,-1.0945127E-1,2.399875E-1,-2.4635465E-1,1.1245737E-1,3.1031382E-1,-3.2140095E-2,-2.2780244E-1,2.688998E-2,5.299041E-3,2.6530194E-1,9.137901E-2,2.7716762E-1,-7.299516E-2,1.2175788E-1,-2.957901E-1,1.09936455E-2,1.8208956E-2,2.6597452E-1],"split_indices":[0,4,3,0,4,3,0,3,5,0,0,3,4,0,3,4,0,0,0,0,3,10,0,3,11,0,0,0,4,3,7,10,3,5,4,11,0,0,0,0,3,3,0,7,3,3,10,0,0,0,0,0,0,0,0,0,0,0,0,0,0,0,0,0,0,0,0,0,0,0,0,0,0,0,0,0,0,0,0,0,0],"split_type":[0,0,0,0,0,0,0,0,0,0,0,0,0,0,0,0,0,0,0,0,0,0,0,0,0,0,0,0,0,0,0,0,0,0,0,0,0,0,0,0,0,0,0,0,0,0,0,0,0,0,0,0,0,0,0,0,0,0,0,0,0,0,0,0,0,0,0,0,0,0,0,0,0,0,0,0,0,0,0,0,0],"sum_hessian":[4.2573624E2,1.3274529E2,2.9299094E2,1.1044491E1,1.21700806E2,3.5191734E1,2.577992E2,7.908207E1,4.261873E1,2.2869753E1,1.2321982E1,3.9678566E1,2.1812064E2,6.477253E1,1.430954E1,2.3660835E1,1.8957895E1,1.6970121E1,5.8996305E0,6.4061427E0,5.9158397E0,3.7364082E1,2.3144836E0,1.24886566E2,9.323406E1,6.2837902E1,1.9346309E0,1.1683984E1,2.6255558E0,1.6178638E1,7.4821973E0,1.35986595E1,5.3592362E0,6.4497294E0,1.0520392E1,2.9869313E0,2.9126992E0,2.533624E0,3.8725188E0,1.4949765E0,4.420863E0,3.1208289E0,3.424325E1,3.2599716E1,9.228685E1,5.1752388E1,4.1481674E1,5.2124454E1,1.0713445E1,9.674331E0,2.0096536E0,1.0803647E0,1.5451909E0,1.515903E1,1.0196084E0,3.6969016E0,3.7852955E0,1.6992514E0,1.1899407E1,4.32525E0,1.0339861E0,3.1871567E0,3.2625728E0,1.696214E0,8.824179E0,1.5543761E0,1.4325552E0,1.6938685E0,2.7269948E0,2.0982056E0,1.0226233E0,9.047264E0,2.5195988E1,1.5791325E1,1.6808392E1,4.3912315E1,4.8374535E1,2.7155922E1,2.4596466E1,3.6231823E1,5.249854E0],"tree_param":{"num_deleted":"0","num_feature":"16","num_nodes":"81","size_leaf_vector":"1"}},{"base_weights":[-1.6232628E-2,-5.9675142E-2,2.6975822E-1,-2.4110779E-1,2.0625545E-3,1.1591351E-2,3.075419E-1,-3.4379867E-1,1.0780969E-1,-6.40262E-2,2.9828325E-1,-2.9565412E-1,2.8455493E-1,-2.1380232E-1,-5.227811E-1,3.1456E-1,-3.2780024E-1,-1.11620426E-1,2.389642E-1,-2.645418E-1,-1.1875219E-1,-3.2335582E-1,-1.2751879E-1,-3.187111E-1,4.7622105E-1,-7.094841E-2,-8.879289E-1,-1.498662E0,4.936061E-1,1.524509E-1,-6.103945E-1,-1.6557366E-1,7.1889106E-3,1.8054399E-1,-2.2315766E-1,-3.265623E-2,3.2076606E-1,-9.750392E-3,-4.343877E-1,-5.2818257E-1,-1.1443187E-1,2.7600133E-1,-2.7579471E-2,9.7715616E-2,-2.230459E-1,6.9620915E-2,-2.4507864E-1],"categories":[],"categories_nodes":[],"categories_segments":[],"categories_sizes":[],"default_left":[0,0,0,0,0,0,0,0,0,0,0,0,0,0,0,0,0,0,0,0,0,0,0,0,0,0,0,0,0,0,0,0,0,0,0,0,0,0,0,0,0,0,0,0,0,0,0],"id":17,"left_children":[1,3,5,7,9,11,-1,13,15,17,-1,19,-1,21,-1,23,-1,25,27,-1,29,-1,31,-1,33,35,37,39,41,43,45,-1,-1,-1,-1,-1,-1,-1,-1,-1,-1,-1,-1,-1,-1,-1,-1],"loss_changes":[5.0659285E0,3.962063E0,1.0476032E1,3.2546968E0,1.7432384E1,1.2109698E1,0E0,1.2287103E1,5.600834E0,3.6212947E0,0E0,3.1830792E0,0E0,4.6965904E0,0E0,4.7008834E0,0E0,6.760516E0,1.5853927E1,0E0,3.4947283E0,0E0,3.8761024E0,0E0,3.1378114E0,9.038479E0,5.065481E0,6.786537E-1,7.7107496E0,2.9188292E0,1.8025148E0,0E0,0E0,0E0,0E0,0E0,0E0,0E0,0E0,0E0,0E0,0E0,0E0,0E0,0E0,0E0,0E0],"parents":[2147483647,0,0,1,1,2,2,3,3,4,4,5,5,7,7,8,8,9,9,11,11,13,13,15,15,17,17,18,18,20,20,22,22,24,24,25,25,26,26,27,27,28,28,29,29,30,30],"right_children":[2,4,6,8,10,12,-1,14,16,18,-1,20,-1,22,-1,24,-1,26,28,-1,30,-1,32,-1,34,36,38,40,42,44,46,-1,-1,-1,-1,-1,-1,-1,-1,-1,-1,-1,-1,-1,-1,-1,-1],"split_conditions":[2.1057265E0,6.899149E-1,1.4703175E0,1.0987349E0,1.4703175E0,6.899149E-1,3.075419E-1,1.0895172E0,3.1443277E-1,1.0512121E0,2.9828325E-1,-1.2091483E-1,2.8455493E-1,-8.5029525E-1,-5.227811E-1,-1.2089657E0,-3.2780024E-1,1.0497544E0,-8.9017206E-1,-2.645418E-1,6.574497E-1,-3.2335582E-1,4.0303382E-1,-3.187111E-1,1.187989E0,1.0065036E0,-6.008435E-1,-1.281302E-2,1.1359713E0,1.1358289E0,-1.2729706E0,-1.6557366E-1,7.1889106E-3,1.8054399E-1,-2.2315766E-1,-3.265623E-2,3.2076606E-1,-9.750392E-3,-4.343877E-1,-5.2818257E-1,-1.1443187E-1,2.7600133E-1,-2.7579471E-2,9.7715616E-2,-2.230459E-1,6.9620915E-2,-2.4507864E-1],"split_indices":[8,10,11,0,11,10,0,0,3,0,0,0,0,4,0,3,0,0,3,0,0,0,0,0,0,0,3,4,0,3,3,0,0,0,0,0,0,0,0,0,0,0,0,0,0,0,0],"split_type":[0,0,0,0,0,0,0,0,0,0,0,0,0,0,0,0,0,0,0,0,0,0,0,0,0,0,0,0,0,0,0,0,0,0,0,0,0,0,0,0,0,0,0,0,0,0,0],"sum_hessian":[4.0545245E2,3.5267224E2,5.2780197E1,8.880113E1,2.6387112E2,4.009296E1,1.2687235E1,6.862005E1,2.0181086E1,2.4826999E2,1.5601122E1,3.0707502E1,9.385458E0,6.3839996E1,4.7800517E0,1.7845623E1,2.3354635E0,2.1511153E2,3.3158463E1,6.1952543E0,2.4512249E1,4.7528257E0,5.908717E1,1.2896426E0,1.655598E1,2.0543962E2,9.671912E0,3.6137273E0,2.9544737E1,1.6242413E1,8.269836E0,1.4847316E1,4.4239853E1,1.5470251E1,1.085729E0,1.9970482E2,5.7347965E0,4.2453356E0,5.4265766E0,2.4608667E0,1.1528605E0,1.6764984E1,1.2779753E1,1.4143592E1,2.09882E0,1.6038818E0,6.6659546E0],"tree_param":{"num_deleted":"0","num_feature":"16","num_nodes":"47","size_leaf_vector":"1"}},{"base_weights":[-1.3168841E-2,-1.3666491E-1,7.4089E-2,-4.4746614E-1,-2.6181174E-2,-7.014916E-2,3.0266154E-1,-3.0889887E-1,-2.7568686E-1,4.3721953E-1,-1.252148E-1,9.822794E-2,-2.5930253E-1,4.7211406E-1,-4.5801383E-1,7.3247087E-1,-8.913694E-1,-3.4192744E-1,3.4240597E-1,2.4209869E-1,-3.761995E-1,-3.9044642E-1,2.058544E-1,9.798297E-1,-2.801006E-1,-8.242507E-1,-3.9191213E-2,-1.9199182E-1,8.692303E-1,-3.5593593E-1,-6.321716E-2,1.2653509E-1,-5.880995E-1,-3.7746757E-1,7.16232E-1,-3.65985E-2,4.780968E-1,4.4725984E-1,-7.9232323E-1,-1.1651575E-1,-6.42749E-1,-2.2905093E-1,4.0684962E-1,4.545913E-2,3.571853E-1,-3.2901937E-1,3.4771442E-2,-3.09208E-1,1.03923135E-1,3.6132672E-1,1.056647E-1,-2.1001852E-1,1.5493502E-1,-3.8774714E-1,-8.043667E-2,8.3811715E-2,-2.9713756E-1,2.4151261E-1,-1.3169073E-1,3.2174718E-2,-1.5511814E-1,1.8729979E-1,-1.6425319E-1,7.864269E-3,2.3557594E-1,-2.794916E-1,1.4740229E-1,-2.2308752E-1,3.9291944E-2,-2.352186E-1,-5.481584E-2,-1.2434687E-1,1.655936E-1],"categories":[],"categories_nodes":[],"categories_segments":[],"categories_sizes":[],"default_left":[0,0,0,0,0,0,0,0,0,0,0,0,0,0,0,0,0,0,0,0,0,0,0,0,0,0,0,0,0,0,0,0,0,0,0,0,0,0,0,0,0,0,0,0,0,0,0,0,0,0,0,0,0,0,0,0,0,0,0,0,0,0,0,0,0,0,0,0,0,0,0,0,0],"id":18,"left_children":[1,3,5,7,9,11,-1,-1,13,15,17,19,21,23,25,27,29,31,33,35,37,39,41,43,-1,45,47,-1,49,-1,-1,51,53,55,57,59,61,63,65,67,69,-1,71,-1,-1,-1,-1,-1,-1,-1,-1,-1,-1,-1,-1,-1,-1,-1,-1,-1,-1,-1,-1,-1,-1,-1,-1,-1,-1,-1,-1,-1,-1],"loss_changes":[4.1881824E0,5.512578E0,3.0790894E1,3.9293966E0,5.550295E0,6.3417645E0,0E0,0E0,4.8377733E0,9.011366E0,1.0194348E1,7.302155E0,5.7946153E0,6.0086794E0,4.225639E0,3.9315386E0,6.187248E-1,7.968299E0,8.879178E0,5.3892794E0,8.912132E0,4.999154E0,4.452077E0,8.2021666E-1,0E0,3.9080906E0,5.70953E0,0E0,2.483261E0,0E0,0E0,8.226465E0,9.806848E0,4.9429207E0,2.5490065E0,2.7078483E0,6.985257E0,1.263485E0,3.4892445E0,5.75E0,2.326744E0,0E0,2.4051354E0,0E0,0E0,0E0,0E0,0E0,0E0,0E0,0E0,0E0,0E0,0E0,0E0,0E0,0E0,0E0,0E0,0E0,0E0,0E0,0E0,0E0,0E0,0E0,0E0,0E0,0E0,0E0,0E0,0E0,0E0],"parents":[2147483647,0,0,1,1,2,2,3,3,4,4,5,5,8,8,9,9,10,10,11,11,12,12,13,13,14,14,15,15,16,16,17,17,18,18,19,19,20,20,21,21,22,22,23,23,25,25,26,26,28,28,31,31,32,32,33,33,34,34,35,35,36,36,37,37,38,38,39,39,40,40,42,42],"right_children":[2,4,6,8,10,12,-1,-1,14,16,18,20,22,24,26,28,30,32,34,36,38,40,42,44,-1,46,48,-1,50,-1,-1,52,54,56,58,60,62,64,66,68,70,-1,72,-1,-1,-1,-1,-1,-1,-1,-1,-1,-1,-1,-1,-1,-1,-1,-1,-1,-1,-1,-1,-1,-1,-1,-1,-1,-1,-1,-1,-1,-1],"split_conditions":[6.852483E-1,9.367511E-2,9.164914E-1,4.021572E-2,2.2155568E-1,-4.2056033E-1,3.0266154E-1,-3.0889887E-1,2.1944061E-1,3.5750948E-2,6.849226E-1,9.17051E-1,2.1057265E0,1.7887165E-1,9.17051E-1,-4.70858E-1,9.17051E-1,-6.381649E-1,9.17051E-1,-8.5198265E-1,-1.2783042E0,1.5308798E-2,2.297513E-1,1.3603245E-1,-2.801006E-1,1.8362632E0,-2.905186E-1,-1.9199182E-1,-2.905186E-1,-3.5593593E-1,-6.321716E-2,-1.0349301E0,-1.5493642E-1,-1.6707527E-2,3.9769235E0,1.0497544E0,6.917369E-1,3.505109E-1,1.1401846E0,6.899149E-1,9.644071E-1,-2.2905093E-1,-2.7464366E-1,4.545913E-2,3.571853E-1,-3.2901937E-1,3.4771442E-2,-3.09208E-1,1.03923135E-1,3.6132672E-1,1.056647E-1,-2.1001852E-1,1.5493502E-1,-3.8774714E-1,-8.043667E-2,8.3811715E-2,-2.9713756E-1,2.4151261E-1,-1.3169073E-1,3.2174718E-2,-1.5511814E-1,1.8729979E-1,-1.6425319E-1,7.864269E-3,2.3557594E-1,-2.794916E-1,1.4740229E-1,-2.2308752E-1,3.9291944E-2,-2.352186E-1,-5.481584E-2,-1.2434687E-1,1.655936E-1],"split_indices":[6,0,7,4,0,3,0,0,4,3,3,5,8,3,5,3,5,3,5,3,3,4,3,4,0,4,3,0,3,0,0,3,3,4,1,0,4,4,0,10,0,0,4,0,0,0,0,0,0,0,0,0,0,0,0,0,0,0,0,0,0,0,0,0,0,0,0,0,0,0,0,0,0],"split_type":[0,0,0,0,0,0,0,0,0,0,0,0,0,0,0,0,0,0,0,0,0,0,0,0,0,0,0,0,0,0,0,0,0,0,0,0,0,0,0,0,0,0,0,0,0,0,0,0,0,0,0,0,0,0,0,0,0,0,0,0,0,0,0,0,0,0,0,0,0,0,0,0,0],"sum_hessian":[3.867187E2,1.5987761E2,2.2684108E2,4.1128677E1,1.1874893E2,1.9731941E2,2.9521675E1,8.232584E0,3.289609E1,2.0308062E1,9.8440865E1,1.0464718E2,9.267223E1,6.136853E0,2.675924E1,1.6982697E1,3.325367E0,6.7450584E1,3.0990282E1,8.067276E1,2.3974415E1,7.24162E1,2.0256033E1,4.731143E0,1.4057099E0,1.3759398E1,1.2999841E1,1.2054904E0,1.5777205E1,1.8013079E0,1.5240589E0,2.340229E1,4.4048294E1,1.0589136E1,2.0401146E1,3.7377495E1,4.329527E1,8.023009E0,1.5951406E1,3.542082E1,3.6995384E1,2.9981203E0,1.7257914E1,1.308443E0,3.4227002E0,1.0538528E1,3.2208703E0,3.1716332E0,9.828207E0,8.765054E0,7.0121512E0,7.2459283E0,1.615636E1,1.2809788E1,3.1238506E1,5.374466E0,5.2146697E0,1.9226183E1,1.1749635E0,2.9363123E1,8.014372E0,3.8234825E1,5.0604405E0,4.052402E0,3.9706073E0,1.4637085E1,1.3143204E0,9.455911E0,2.5964907E1,2.7762775E1,9.232608E0,2.312816E0,1.4945097E1],"tree_param":{"num_deleted":"0","num_feature":"16","num_nodes":"73","size_leaf_vector":"1"}},{"base_weights":[-1.3821869E-2,-7.0071113E-1,-3.314751E-3,-1.1066414E-2,-2.7970266E-1,-1.0973783E-1,7.212025E-2,-3.7710845E-1,-1.8366788E-2,-4.090266E-2,2.963149E-1,-2.9164934E-1,-2.2611313E-1,3.558884E-2,-5.9428924E-1,1.0380881E-1,-2.012945E-1,9.293337E-2,-5.6465864E-1,-3.8486838E-1,1.17033675E-1,-7.310588E-1,1.0810217E-2,2.0940508E-1,-2.682895E-1,-3.57915E-1,7.555614E-2,-9.478576E-2,1.5706262E-1,-2.2919942E-1,1.4085606E-1,-3.2788336E-1,1.1278728E-1,-1.8684033E-2,1.101983E-1,-5.1226005E-2,-3.306729E-1,8.5352495E-2,-3.53599E-2,2.529308E-1,-1.6237359E-1,-1.7568539E-1,4.2832633E-3,-1.7515868E-1,8.61754E-2],"categories":[],"categories_nodes":[],"categories_segments":[],"categories_sizes":[],"default_left":[0,0,0,0,0,0,0,0,0,0,0,0,0,0,0,0,0,0,0,0,0,0,0,0,0,0,0,0,0,0,0,0,0,0,0,0,0,0,0,0,0,0,0,0,0],"id":19,"left_children":[1,3,5,-1,-1,7,9,11,13,15,-1,-1,17,19,21,23,25,27,29,31,33,35,-1,37,39,41,43,-1,-1,-1,-1,-1,-1,-1,-1,-1,-1,-1,-1,-1,-1,-1,-1,-1,-1],"loss_changes":[2.6182885E0,8.060498E-1,2.8870783E0,0E0,0E0,3.6370575E0,2.1821417E1,3.1890993E0,3.5083282E0,4.391713E0,0E0,0E0,3.4617765E0,3.591065E0,8.5993147E-1,3.9718301E0,3.9146187E0,3.1777449E0,3.544889E0,9.588966E0,3.9506388E0,1.4740081E0,0E0,1.9553096E0,7.272061E0,4.8760886E0,4.805131E0,0E0,0E0,0E0,0E0,0E0,0E0,0E0,0E0,0E0,0E0,0E0,0E0,0E0,0E0,0E0,0E0,0E0,0E0],"parents":[2147483647,0,0,1,1,2,2,5,5,6,6,7,7,8,8,9,9,12,12,13,13,14,14,15,15,16,16,17,17,18,18,19,19,20,20,21,21,23,23,24,24,25,25,26,26],"right_children":[2,4,6,-1,-1,8,10,12,14,16,-1,-1,18,20,22,24,26,28,30,32,34,36,-1,38,40,42,44,-1,-1,-1,-1,-1,-1,-1,-1,-1,-1,-1,-1,-1,-1,-1,-1,-1,-1],"split_conditions":[-1.4801658E0,-2.7464366E-1,6.852483E-1,-1.1066414E-2,-2.7970266E-1,9.367511E-2,9.164914E-1,4.021572E-2,3.9769235E0,-4.2056033E-1,2.963149E-1,-2.9164934E-1,-8.3570145E-2,-3.255166E-1,8.9155453E-1,9.17051E-1,9.17051E-1,-2.2244899E-1,2.1057265E0,1.4047076E-1,9.17051E-1,-2.3710379E-1,1.0810217E-2,6.917369E-1,-1.3931849E0,8.8410425E-1,-6.412254E-3,-9.478576E-2,1.5706262E-1,-2.2919942E-1,1.4085606E-1,-3.2788336E-1,1.1278728E-1,-1.8684033E-2,1.101983E-1,-5.1226005E-2,-3.306729E-1,8.5352495E-2,-3.53599E-2,2.529308E-1,-1.6237359E-1,-1.7568539E-1,4.2832633E-3,-1.7515868E-1,8.61754E-2],"split_indices":[3,4,6,0,0,0,7,4,1,3,0,0,0,4,4,5,5,0,8,3,5,3,0,4,3,0,3,0,0,0,0,0,0,0,0,0,0,0,0,0,0,0,0,0,0],"split_type":[0,0,0,0,0,0,0,0,0,0,0,0,0,0,0,0,0,0,0,0,0,0,0,0,0,0,0,0,0,0,0,0,0,0,0,0,0,0,0,0,0,0,0,0,0],"sum_hessian":[3.6210504E2,4.4658623E0,3.5763916E2,1.4550735E0,3.010789E0,1.4816063E2,2.0947853E2,3.6939823E1,1.1122081E2,1.8731174E2,2.216679E1,6.3756623E0,3.0564161E1,1.0255142E2,8.669384E0,9.865464E1,8.8657104E1,1.6108728E1,1.4455432E1,1.6036715E1,8.651471E1,6.992347E0,1.6770371E0,7.7187225E1,2.1467419E1,5.6436768E1,3.2220333E1,8.399357E0,7.709372E0,1.2338433E1,2.1169987E0,8.080206E0,7.9565096E0,5.0842014E1,3.5672695E1,3.3681386E0,3.6242082E0,6.28865E1,1.430072E1,3.8209388E0,1.7646479E1,3.4659237E1,2.1777533E1,7.402849E0,2.4817486E1],"tree_param":{"num_deleted":"0","num_feature":"16","num_nodes":"45","size_leaf_vector":"1"}},{"base_weights":[-1.2263789E-2,-3.0365914E-1,1.5068144E-2,-8.3744323E-1,-6.721157E-2,4.1849427E-2,-2.67948E-1,-3.0464593E-1,-4.032247E-2,-3.050374E-1,6.159187E-2,6.633731E-2,-5.181553E-1,-3.743829E-1,6.0266364E-1,2.77196E-1,-1.2163633E-1,5.321573E-4,2.1580602E-1,-6.8261343E-1,1.5972908E-1,-1.8808532E-1,-8.915815E-1,2.375432E-1,3.948912E-2,8.5346416E-2,-8.528065E-1,1.4095624E-1,-2.2503193E-1,4.1843635E-1,-9.9311754E-2,-8.7592745E-1,-6.376937E-2,-3.587801E-1,5.717404E-1,-7.024625E-2,-2.917822E-1,-6.272382E-2,1.9538443E-1,-9.747406E-2,-3.5499457E-1,-1.6240387E-1,5.071061E-2,-1.8002036E-1,3.675164E-2,7.439671E-2,3.090461E-1,-8.3618104E-2,1.9805057E-1,-3.0903372E-1,-5.5815708E-2,-8.576693E-2,7.8979164E-2,-2.5700969E-1,-6.657682E-3,2.8177124E-1,-6.1212473E-2],"categories":[],"categories_nodes":[],"categories_segments":[],"categories_sizes":[],"default_left":[0,0,0,0,0,0,0,0,0,0,0,0,0,0,0,0,0,0,0,0,0,0,0,0,0,0,0,0,0,0,0,0,0,0,0,0,0,0,0,0,0,0,0,0,0,0,0,0,0,0,0,0,0,0,0,0,0],"id":20,"left_children":[1,3,5,7,9,11,13,-1,-1,-1,15,17,19,21,23,-1,25,27,29,31,-1,33,35,-1,-1,37,39,41,43,45,47,49,51,53,55,-1,-1,-1,-1,-1,-1,-1,-1,-1,-1,-1,-1,-1,-1,-1,-1,-1,-1,-1,-1,-1,-1],"loss_changes":[2.7839067E0,3.7266114E0,2.4366412E0,1.0042887E0,2.7361548E0,4.0551043E0,2.8014941E0,0E0,0E0,0E0,3.3028445E0,2.771631E0,2.5054243E0,2.278389E0,1.997081E-1,0E0,2.7267344E0,6.2609324E0,5.541733E0,1.2789335E0,0E0,2.790177E0,1.1613321E-1,0E0,0E0,2.5649745E0,3.0643725E-1,2.4254076E0,9.958626E0,5.2308483E0,4.887816E0,7.043114E-1,3.465263E-1,2.811555E0,1.3439391E0,0E0,0E0,0E0,0E0,0E0,0E0,0E0,0E0,0E0,0E0,0E0,0E0,0E0,0E0,0E0,0E0,0E0,0E0,0E0,0E0,0E0,0E0],"parents":[2147483647,0,0,1,1,2,2,3,3,4,4,5,5,6,6,10,10,11,11,12,12,13,13,14,14,16,16,17,17,18,18,19,19,21,21,22,22,25,25,26,26,27,27,28,28,29,29,30,30,31,31,32,32,33,33,34,34],"right_children":[2,4,6,8,10,12,14,-1,-1,-1,16,18,20,22,24,-1,26,28,30,32,-1,34,36,-1,-1,38,40,42,44,46,48,50,52,54,56,-1,-1,-1,-1,-1,-1,-1,-1,-1,-1,-1,-1,-1,-1,-1,-1,-1,-1,-1,-1,-1,-1],"split_conditions":[-8.6168253E-1,7.6329136E-1,2.4618466E0,9.164914E-1,-1.226608E0,6.0985317E0,6.0985317E0,-3.0464593E-1,-4.032247E-2,-3.050374E-1,-9.57649E-1,9.17051E-1,1.187989E0,6.7497635E-1,3.1254897E-1,2.77196E-1,9.17051E-1,-4.8424803E-2,5.702709E-1,6.852483E-1,1.5972908E-1,4.2044175E-1,-3.8869596E-1,2.375432E-1,3.948912E-2,1.1401846E0,1.1359713E0,-1.4498045E0,6.243139E-1,4.0303382E-1,1.1977823E0,7.6439786E-1,3.1443277E-1,-3.615688E-2,6.0091066E-1,-7.024625E-2,-2.917822E-1,-6.272382E-2,1.9538443E-1,-9.747406E-2,-3.5499457E-1,-1.6240387E-1,5.071061E-2,-1.8002036E-1,3.675164E-2,7.439671E-2,3.090461E-1,-8.3618104E-2,1.9805057E-1,-3.0903372E-1,-5.5815708E-2,-8.576693E-2,7.8979164E-2,-2.5700969E-1,-6.657682E-3,2.8177124E-1,-6.1212473E-2],"split_indices":[4,0,5,7,3,2,2,0,0,0,3,5,0,4,0,0,5,3,0,6,0,4,0,0,0,0,0,3,0,0,3,4,3,0,4,0,0,0,0,0,0,0,0,0,0,0,0,0,0,0,0,0,0,0,0,0,0],"split_type":[0,0,0,0,0,0,0,0,0,0,0,0,0,0,0,0,0,0,0,0,0,0,0,0,0,0,0,0,0,0,0,0,0,0,0,0,0,0,0,0,0,0,0,0,0,0,0,0,0,0,0,0,0,0,0,0,0],"sum_hessian":[3.4796945E2,2.8972576E1,3.1899686E2,8.113791E0,2.0858784E1,2.921988E2,2.6798088E1,6.1195803E0,1.9942108E0,1.6679556E0,1.9190828E1,2.8080142E2,1.1397343E1,2.4386717E1,2.4113724E0,2.6544397E0,1.6536388E1,1.9566254E2,8.51389E1,1.015754E1,1.2398022E0,1.8931246E1,5.45547E0,1.2346011E0,1.1767713E0,1.3576399E1,2.95999E0,1.2082098E2,7.484155E1,5.161866E1,3.352024E1,7.4232464E0,2.7342935E0,1.5889487E1,3.041759E0,1.0254049E0,4.430065E0,9.345166E0,4.2312326E0,1.9032168E0,1.0567733E0,4.0531445E0,1.1676783E2,3.564719E1,3.9194366E1,4.146919E1,1.0149471E1,2.7626839E1,5.893403E0,5.6641417E0,1.7591051E0,1.7032545E0,1.031039E0,5.7855706E0,1.0103917E1,1.9210415E0,1.1207176E0],"tree_param":{"num_deleted":"0","num_feature":"16","num_nodes":"57","size_leaf_vector":"1"}},{"base_weights":[-1.2511652E-2,-4.1605614E-2,1.9616374E-1,7.5906016E-2,-9.801901E-2,-2.4307827E-2,2.9031038E-1,1.3900779E-1,-8.5262495E-1,-3.8958368E-1,-3.487335E-2,-2.5703654E-1,2.660665E-1,2.1846016E-1,-3.147575E-1,-4.8641197E-2,-2.8777644E-1,-5.94159E-1,7.111189E-1,4.5809874E-1,-7.621082E-2,5.253743E-2,-5.688182E-1,-4.061368E-1,3.0042648E-1,-3.3844078E-1,-3.14747E-2,8.085006E-2,-7.7486014E-1,2.4946259E-1,8.224279E-2,-3.6857095E-1,8.878769E-1,-2.0980881E-1,1.1503206E-1,-6.028752E-1,3.671679E-1,-3.3500886E-1,-1.8758671E-1,-2.7954772E-1,9.24893E-2,1.5056657E-2,1.5721193E-1,2.77074E-1,-6.496706E-2,1.5666947E-1,-1.111623E-1,-2.6202032E-1,1.103754E-1,-2.844858E-1,7.539041E-2,3.1811184E-1,-7.113505E-2,-1.8298645E-1,3.5032358E-2,8.551664E-2,-1.1631302E-1,-2.485859E-1,2.8066585E-2,-1.9539882E-1,1.703736E-1,-1.7701638E-1,1.074651E-1],"categories":[],"categories_nodes":[],"categories_segments":[],"categories_sizes":[],"default_left":[0,0,0,0,0,0,0,0,0,0,0,0,0,0,0,0,0,0,0,0,0,0,0,0,0,0,0,0,0,0,0,0,0,0,0,0,0,0,0,0,0,0,0,0,0,0,0,0,0,0,0,0,0,0,0,0,0,0,0,0,0,0,0],"id":21,"left_children":[1,3,5,7,9,11,-1,13,15,17,19,21,-1,23,25,-1,-1,27,29,31,33,35,37,39,41,-1,43,45,47,-1,-1,49,51,53,55,57,59,-1,61,-1,-1,-1,-1,-1,-1,-1,-1,-1,-1,-1,-1,-1,-1,-1,-1,-1,-1,-1,-1,-1,-1,-1,-1],"loss_changes":[2.073828E0,1.9924508E0,7.135072E0,5.8421392E0,3.7191966E0,7.3302007E0,0E0,3.3975E0,3.1246567E-1,8.527695E0,3.4534028E0,2.6796305E0,0E0,4.1748056E0,3.2288759E0,0E0,0E0,3.8314447E0,9.285641E-2,4.9889245E0,4.00046E0,3.250767E0,2.6650243E0,3.89598E0,3.9216385E0,0E0,2.2392263E0,1.67389E0,3.0766726E0,0E0,0E0,2.10505E0,1.9836192E0,1.2091078E1,5.6368933E0,8.861414E-1,2.5263727E0,0E0,2.258072E0,0E0,0E0,0E0,0E0,0E0,0E0,0E0,0E0,0E0,0E0,0E0,0E0,0E0,0E0,0E0,0E0,0E0,0E0,0E0,0E0,0E0,0E0,0E0,0E0],"parents":[2147483647,0,0,1,1,2,2,3,3,4,4,5,5,7,7,8,8,9,9,10,10,11,11,13,13,14,14,17,17,18,18,19,19,20,20,21,21,22,22,23,23,24,24,26,26,27,27,28,28,31,31,32,32,33,33,34,34,35,35,36,36,38,38],"right_children":[2,4,6,8,10,12,-1,14,16,18,20,22,-1,24,26,-1,-1,28,30,32,34,36,38,40,42,-1,44,46,48,-1,-1,50,52,54,56,58,60,-1,62,-1,-1,-1,-1,-1,-1,-1,-1,-1,-1,-1,-1,-1,-1,-1,-1,-1,-1,-1,-1,-1,-1,-1,-1],"split_conditions":[2.1057265E0,-6.316908E-1,1.4703175E0,1.599999E0,-3.7074777E-1,6.899149E-1,2.9031038E-1,1.0933437E0,-4.8122355E-1,1.1401846E0,-2.905186E-1,6.384846E-2,2.660665E-1,-3.8869596E-1,-1.1433196E0,-4.8641197E-2,-2.8777644E-1,-3.0151716E-1,-6.3432574E-1,2.8538814E-1,9.17051E-1,-2.1356495E-1,5.2631813E-1,3.224851E0,-9.632299E-1,-3.3844078E-1,-1.04403E0,1.5308798E-2,2.4618466E0,2.4946259E-1,8.224279E-2,6.852483E-1,9.17051E-1,6.243139E-1,7.446285E-1,9.271833E-1,-1.6584575E-1,-3.3500886E-1,8.9868253E-1,-2.7954772E-1,9.24893E-2,1.5056657E-2,1.5721193E-1,2.77074E-1,-6.496706E-2,1.5666947E-1,-1.111623E-1,-2.6202032E-1,1.103754E-1,-2.844858E-1,7.539041E-2,3.1811184E-1,-7.113505E-2,-1.8298645E-1,3.5032358E-2,8.551664E-2,-1.1631302E-1,-2.485859E-1,2.8066585E-2,-1.9539882E-1,1.703736E-1,-1.7701638E-1,1.074651E-1],"split_indices":[8,3,11,4,3,10,0,0,0,0,3,4,0,0,3,0,0,0,4,4,5,4,4,12,3,0,3,4,5,0,0,6,5,0,0,0,0,0,3,0,0,0,0,0,0,0,0,0,0,0,0,0,0,0,0,0,0,0,0,0,0,0,0],"split_type":[0,0,0,0,0,0,0,0,0,0,0,0,0,0,0,0,0,0,0,0,0,0,0,0,0,0,0,0,0,0,0,0,0,0,0,0,0,0,0,0,0,0,0,0,0,0,0,0,0,0,0,0,0,0,0,0,0,0,0,0,0,0,0],"sum_hessian":[3.3924057E2,2.98433E2,4.0807537E1,9.668607E1,2.0174695E2,3.2491413E1,8.316126E0,9.132972E1,5.356357E0,3.499477E1,1.6675218E2,2.6452969E1,6.038443E0,7.816238E1,1.3167339E1,1.0536897E0,4.3026676E0,2.9898136E1,5.0966325E0,1.2120973E1,1.5463121E2,1.3690702E1,1.2762266E1,8.60859E0,6.955379E1,2.6309192E0,1.053642E1,6.430307E0,2.3467829E1,3.2876635E0,1.808969E0,4.1947913E0,7.9261813E0,9.097855E1,6.365266E1,4.1433907E0,9.547312E0,4.445023E0,8.317244E0,4.7841063E0,3.8244834E0,3.3400696E1,3.615309E1,1.062684E0,9.473736E0,3.171852E0,3.2584548E0,2.1821867E1,1.6459618E0,1.893836E0,2.3009555E0,6.922233E0,1.0039483E0,4.0494728E1,5.048382E1,4.788973E1,1.5762929E1,2.9857616E0,1.157629E0,1.2023714E0,8.34494E0,4.740553E0,3.5766907E0],"tree_param":{"num_deleted":"0","num_feature":"16","num_nodes":"63","size_leaf_vector":"1"}},{"base_weights":[-1.0543629E-2,-5.1833695E-1,8.9211724E-5,-2.8828856E-1,1.328658E-1,-8.824622E-2,6.635962E-2,-1.3496464E-1,2.2735612E-1,-2.5425222E-2,2.894714E-1,-7.9683274E-2,-4.519173E-1,-6.235487E-1,5.3115463E-1,2.8795224E-2,-3.6310485E-1,-1.4106454E-1,4.7125518E-1,-3.2470483E-1,1.5754741E-1,6.8610156E-1,-9.658659E-2,-2.9949479E-2,5.9935135E-1,-7.1777755E-1,2.1149164E-1,-2.6231728E-2,-2.3027487E-1,-4.4332016E-2,1.8160374E-1,2.9934517E-1,1.1700507E-1,2.3046885E-2,-6.974163E-2,-1.924467E-1,2.363151E-1,1.07071586E-1,-2.7102762E-1,-1.2571715E-1,1.2144136E-1],"categories":[],"categories_nodes":[],"categories_segments":[],"categories_sizes":[],"default_left":[0,0,0,0,0,0,0,0,0,0,0,0,0,0,0,0,0,0,0,0,0,0,0,0,0,0,0,0,0,0,0,0,0,0,0,0,0,0,0,0,0],"id":22,"left_children":[1,3,5,-1,-1,7,9,11,13,15,-1,17,-1,19,21,23,25,27,29,-1,-1,31,-1,33,35,37,39,-1,-1,-1,-1,-1,-1,-1,-1,-1,-1,-1,-1,-1,-1],"loss_changes":[1.7710474E0,3.2879019E0,1.8924853E0,0E0,0E0,2.0738409E0,1.5257902E1,9.078598E0,5.0463524E0,3.096703E0,0E0,4.0462875E0,0E0,3.3400004E0,2.0690315E0,4.9171033E0,4.919487E0,3.5163069E0,1.0878193E0,0E0,0E0,7.3235655E-1,0E0,2.904127E0,3.7056365E0,3.253923E0,1.3521723E0,0E0,0E0,0E0,0E0,0E0,0E0,0E0,0E0,0E0,0E0,0E0,0E0,0E0,0E0],"parents":[2147483647,0,0,1,1,2,2,5,5,6,6,7,7,8,8,9,9,11,11,13,13,14,14,15,15,16,16,17,17,18,18,21,21,23,23,24,24,25,25,26,26],"right_children":[2,4,6,-1,-1,8,10,12,14,16,-1,18,-1,20,22,24,26,28,30,-1,-1,32,-1,34,36,38,40,-1,-1,-1,-1,-1,-1,-1,-1,-1,-1,-1,-1,-1,-1],"split_conditions":[-1.4880921E0,1.0987349E0,6.852483E-1,-2.8828856E-1,1.328658E-1,1.5587116E0,9.164914E-1,9.598154E-1,3.7012804E-1,6.65463E-1,2.894714E-1,7.192568E-1,-4.519173E-1,1.4703175E0,1.1805226E0,4.338265E-1,2.1057265E0,4.822051E-1,2.3926424E-2,-3.2470483E-1,1.5754741E-1,2.010152E0,-9.658659E-2,8.318073E-1,-1.2091483E-1,-7.2515196E-1,5.5359866E-2,-2.6231728E-2,-2.3027487E-1,-4.4332016E-2,1.8160374E-1,2.9934517E-1,1.1700507E-1,2.3046885E-2,-6.974163E-2,-1.924467E-1,2.363151E-1,1.07071586E-1,-2.7102762E-1,-1.2571715E-1,1.2144136E-1],"split_indices":[4,0,6,0,0,3,7,3,0,3,0,3,0,11,0,3,8,3,0,0,0,3,0,0,0,4,0,0,0,0,0,0,0,0,0,0,0,0,0,0,0],"split_type":[0,0,0,0,0,0,0,0,0,0,0,0,0,0,0,0,0,0,0,0,0,0,0,0,0,0,0,0,0,0,0,0,0,0,0,0,0,0,0,0,0],"sum_hessian":[3.2700656E2,5.7275352E0,3.2127902E2,3.9218633E0,1.805672E0,1.3757123E2,1.837078E2,1.20331055E2,1.7240177E1,1.675632E2,1.614459E1,1.1668563E2,3.645425E0,4.2589207E0,1.29812565E1,1.4516855E2,2.2394655E1,1.05658E2,1.1027635E1,3.0846565E0,1.1742642E0,1.11516E1,1.829656E0,1.3247624E2,1.2692303E1,1.3693244E1,8.701412E0,9.837718E1,7.280814E0,1.9452691E0,9.082365E0,4.277862E0,6.873738E0,8.715024E1,4.532601E1,1.355767E0,1.1336535E1,1.8811436E0,1.18121E1,1.7677122E0,6.9336996E0],"tree_param":{"num_deleted":"0","num_feature":"16","num_nodes":"41","size_leaf_vector":"1"}},{"base_weights":[-7.6339925E-3,-1.2541232E-1,4.6560343E-2,-1.741801E-1,1.9653821E-1,-8.3224485E-3,2.9554388E-1,-8.961751E-1,-9.911789E-2,2.467819E-1,-7.1745135E-2,-3.133512E-2,2.5239527E-1,-1.0141593E0,-5.0874922E-2,-4.683263E-2,-5.204018E-1,-3.1763473E-1,1.5185314E-1,-9.351759E-2,1.01594515E-1,-8.19758E-2,-3.4838745E-1,-7.37125E-2,2.2987907E-1,-3.587886E-1,8.9167185E-2,2.0673057E-1,-3.4004483E-1,4.1394692E-2,-4.9281362E-1,8.233834E-1,4.1991945E-2,-9.5193274E-2,6.4509627E-3,-6.251665E-2,1.812556E-1,-1.85474E-2,2.1787688E-1,-2.7438948E-2,1.3746727E-1,-4.610804E-3,-2.8640303E-1,2.818993E-1,6.297535E-2,-2.590667E-1,2.894571E-2],"categories":[],"categories_nodes":[],"categories_segments":[],"categories_sizes":[],"default_left":[0,0,0,0,0,0,0,0,0,0,0,0,0,0,0,0,0,0,0,0,0,0,0,0,0,0,0,0,0,0,0,0,0,0,0,0,0,0,0,0,0,0,0,0,0,0,0],"id":23,"left_children":[1,3,5,7,9,11,-1,13,15,-1,17,19,-1,21,-1,23,25,27,-1,29,31,-1,-1,33,-1,-1,35,37,-1,39,41,43,45,-1,-1,-1,-1,-1,-1,-1,-1,-1,-1,-1,-1,-1,-1],"loss_changes":[2.044452E0,1.6187569E0,1.131337E1,4.6897254E0,2.367812E0,4.099798E0,0E0,5.292034E-1,1.7596934E0,0E0,1.6588761E0,1.694119E0,0E0,4.2786837E-1,0E0,1.6552701E0,3.748387E0,3.6610234E0,0E0,7.52835E0,2.7803285E0,0E0,0E0,1.6703849E0,0E0,0E0,9.8093146E-1,8.4321326E-1,0E0,5.8620563E0,7.764019E0,1.5494156E-1,3.1178706E0,0E0,0E0,0E0,0E0,0E0,0E0,0E0,0E0,0E0,0E0,0E0,0E0,0E0,0E0],"parents":[2147483647,0,0,1,1,2,2,3,3,4,4,5,5,7,7,8,8,10,10,11,11,13,13,15,15,16,16,17,17,19,19,20,20,23,23,26,26,27,27,29,29,30,30,31,31,32,32],"right_children":[2,4,6,8,10,12,-1,14,16,-1,18,20,-1,22,-1,24,26,28,-1,30,32,-1,-1,34,-1,-1,36,38,-1,40,42,44,46,-1,-1,-1,-1,-1,-1,-1,-1,-1,-1,-1,-1,-1,-1],"split_conditions":[6.899149E-1,1.1401846E0,1.4703175E0,-6.8882143E-1,1.1805226E0,2.1057265E0,2.9554388E-1,9.164914E-1,1.0895172E0,2.467819E-1,5.6976056E-1,7.6329136E-1,2.5239527E-1,-1.0551077E0,-5.0874922E-2,1.0512121E0,1.0987349E0,-4.034919E-1,1.5185314E-1,3.0873448E-1,8.318073E-1,-8.19758E-2,-3.4838745E-1,6.852483E-1,2.2987907E-1,-3.587886E-1,3.9769235E0,2.1057265E0,-3.4004483E-1,1.3754423E-1,1.286144E-1,3.9769235E0,8.44513E-1,-9.5193274E-2,6.4509627E-3,-6.251665E-2,1.812556E-1,-1.85474E-2,2.1787688E-1,-2.7438948E-2,1.3746727E-1,-4.610804E-3,-2.8640303E-1,2.818993E-1,6.297535E-2,-2.590667E-1,2.894571E-2],"split_indices":[10,0,11,4,0,8,0,7,0,0,4,0,0,3,0,0,0,4,0,0,0,0,0,6,0,0,1,8,0,0,4,1,0,0,0,0,0,0,0,0,0,0,0,0,0,0,0],"split_type":[0,0,0,0,0,0,0,0,0,0,0,0,0,0,0,0,0,0,0,0,0,0,0,0,0,0,0,0,0,0,0,0,0,0,0,0,0,0,0,0,0,0,0,0,0,0,0],"sum_hessian":[3.1838568E2,9.991985E1,2.1846584E2,8.717406E1,1.2745794E1,2.0733337E2,1.1132462E1,7.179365E0,7.999469E1,3.203619E0,9.542175E0,2.0280353E2,4.5298553E0,5.8359466E0,1.3434184E0,7.215122E1,7.843473E0,7.0100026E0,2.5321732E0,1.383718E2,6.443173E1,1.4402976E0,4.395649E0,7.072257E1,1.4286498E0,3.2640648E0,4.579408E0,4.721796E0,2.2882066E0,1.0409649E2,3.4275303E1,3.9372275E0,6.0494507E1,1.92194E1,5.150317E1,3.2798328E0,1.2995752E0,3.6935234E0,1.0282725E0,7.952858E1,2.4567907E1,1.736144E1,1.6913862E1,2.8628504E0,1.0743771E0,2.5910454E0,5.790346E1],"tree_param":{"num_deleted":"0","num_feature":"16","num_nodes":"47","size_leaf_vector":"1"}},{"base_weights":[-4.074751E-3,-2.4903265E-1,1.478916E-2,-3.688232E-1,1.8874882E-1,1.1939076E-1,-3.6671583E-2,-8.253653E-1,-7.4323244E-2,-1.567991E-1,2.1667987E-1,-5.712709E-1,1.8841839E-1,8.888369E-2,-1.8876559E-1,-3.0287575E-2,-3.0754146E-1,2.7870417E-1,-2.413992E-1,-1.3182747E-1,9.839643E-2,-2.7106026E-1,2.0242025E-1,5.2929145E-1,6.895129E-2,-1.5552061E-2,4.6185374E-1,-4.657645E-1,-5.373158E-2,-1.7028853E-1,5.012919E-1,8.897967E-1,-2.2769536E-1,-7.146182E-2,6.785098E-1,-5.267517E-1,3.6864113E-2,5.784101E-1,-2.24813E-1,-6.205885E-1,-5.5216223E-2,-1.8794774E-1,1.9463557E-1,2.26294E-1,9.170065E-3,-1.08437985E-1,3.510013E-1,8.847843E-2,-1.3702093E-1,2.9319662E-1,-5.1218104E-2,2.6204503E-1,-3.7118673E-2,-2.3648672E-1,5.238111E-2,-5.5862408E-2,4.9189854E-2,1.9920443E-1,-4.4601176E-2,6.345369E-2,-2.1472383E-1,-2.7405629E-2,-2.402825E-1,-2.0743121E-1,4.0675946E-2,1.391168E-3,-2.5431514E-1,1.4786091E-1,-9.6342035E-2],"categories":[],"categories_nodes":[],"categories_segments":[],"categories_sizes":[],"default_left":[0,0,0,0,0,0,0,0,0,0,0,0,0,0,0,0,0,0,0,0,0,0,0,0,0,0,0,0,0,0,0,0,0,0,0,0,0,0,0,0,0,0,0,0,0,0,0,0,0,0,0,0,0,0,0,0,0,0,0,0,0,0,0,0,0,0,0,0,0],"id":24,"left_children":[1,3,5,7,9,11,13,15,17,19,-1,21,23,25,27,-1,-1,29,-1,-1,-1,-1,-1,31,33,35,37,39,41,-1,43,45,47,49,51,53,55,57,59,61,63,65,67,-1,-1,-1,-1,-1,-1,-1,-1,-1,-1,-1,-1,-1,-1,-1,-1,-1,-1,-1,-1,-1,-1,-1,-1,-1,-1],"loss_changes":[1.4295474E0,1.2296152E0,1.5516932E0,2.3192444E0,1.1113043E0,4.6377172E0,3.710572E0,8.869324E-1,3.2826447E0,7.068816E-1,0E0,4.2867546E0,3.5120633E0,4.1609473E0,3.258736E0,0E0,0E0,1.9308999E0,0E0,0E0,0E0,0E0,0E0,6.33308E0,5.6695514E0,2.2776833E0,1.9997191E0,1.7862363E0,2.0416765E0,0E0,8.643303E-1,5.8297176E0,1.0975051E0,5.818153E0,2.046237E0,1.5873513E0,2.2243571E0,1.3591528E0,1.031779E0,1.9026542E0,1.179104E0,5.030138E0,3.479731E0,0E0,0E0,0E0,0E0,0E0,0E0,0E0,0E0,0E0,0E0,0E0,0E0,0E0,0E0,0E0,0E0,0E0,0E0,0E0,0E0,0E0,0E0,0E0,0E0,0E0,0E0],"parents":[2147483647,0,0,1,1,2,2,3,3,4,4,5,5,6,6,7,7,8,8,9,9,11,11,12,12,13,13,14,14,17,17,23,23,24,24,25,25,26,26,27,27,28,28,30,30,31,31,32,32,33,33,34,34,35,35,36,36,37,37,38,38,39,39,40,40,41,41,42,42],"right_children":[2,4,6,8,10,12,14,16,18,20,-1,22,24,26,28,-1,-1,30,-1,-1,-1,-1,-1,32,34,36,38,40,42,-1,44,46,48,50,52,54,56,58,60,62,64,66,68,-1,-1,-1,-1,-1,-1,-1,-1,-1,-1,-1,-1,-1,-1,-1,-1,-1,-1,-1,-1,-1,-1,-1,-1,-1,-1],"split_conditions":[-4.8122355E-1,3.224851E0,2.2155568E-1,-5.1927197E-1,6.899149E-1,-1.7503783E-1,1.9622955E-2,-1.3156404E0,2.8538814E-1,1.7932451E-1,2.1667987E-1,1.4703175E0,-7.610022E-1,-7.68532E-2,3.505109E-1,-3.0287575E-2,-3.0754146E-1,-6.938218E-1,-2.413992E-1,-1.3182747E-1,9.839643E-2,-2.7106026E-1,2.0242025E-1,4.1140032E-1,1.3754423E-1,4.9225712E-1,1.0932795E0,1.4703175E0,4.5146888E-1,-1.7028853E-1,-5.6305355E-1,4.021572E-2,-3.0151716E-1,-1.0753373E-1,2.394904E-2,6.069679E-1,6.899149E-1,3.9769235E0,-7.610022E-1,9.228392E-2,-8.5198265E-1,3.5750948E-2,1.1358289E0,2.26294E-1,9.170065E-3,-1.08437985E-1,3.510013E-1,8.847843E-2,-1.3702093E-1,2.9319662E-1,-5.1218104E-2,2.6204503E-1,-3.7118673E-2,-2.3648672E-1,5.238111E-2,-5.5862408E-2,4.9189854E-2,1.9920443E-1,-4.4601176E-2,6.345369E-2,-2.1472383E-1,-2.7405629E-2,-2.402825E-1,-2.0743121E-1,4.0675946E-2,1.391168E-3,-2.5431514E-1,1.4786091E-1,-9.6342035E-2],"split_indices":[0,12,0,3,10,4,4,3,4,4,0,11,3,4,4,0,0,0,0,0,0,0,0,4,0,0,0,11,3,0,0,4,0,4,3,3,10,1,3,4,3,3,3,0,0,0,0,0,0,0,0,0,0,0,0,0,0,0,0,0,0,0,0,0,0,0,0,0,0],"split_type":[0,0,0,0,0,0,0,0,0,0,0,0,0,0,0,0,0,0,0,0,0,0,0,0,0,0,0,0,0,0,0,0,0,0,0,0,0,0,0,0,0,0,0,0,0,0,0,0,0,0,